V1,V2,V3,V4,V5,V6,V7,V8,V9,V10,V11,V12,V13,V14,V15,V16,V17,V18,V19,V20,V21,V22,V23,V24,V25,V26,V27,V28,V29,V30,V31,V32,V33,V34,V35,V36,V37,V38,V39,V40,V41,V42,V43,V44,V45,V46,V47,V48,V49,V50,V51,V52,V53,V54,V55,V56,V57,V58,V59,V60,V61,V62,V63,V64,V65,V66,V67,V68,V69,V70,V71,V72,V73,V74,V75,V76,V77,V78,V79,V80,V81,V82,V83,V84,V85,V86,V87,V88,V89,V90,V91,V92,V93,V94,V95,V96,V97,V98,V99,V100,V101,V102,V103,V104,V105,V106,V107,V108,V109,V110,V111,V112,V113,V114,V115,V116,V117,V118,V119,V120,V121,V122,V123,V124,V125,V126,V127,V128,V129,V130,V131,V132,V133,V134,V135,V136,V137,V138,V139,V140,V141,V142,V143,V144,V145,V146,V147,V148,V149,V150,V151,V152,V153,V154,V155,V156,V157,V158,V159,V160,V161,V162,V163,V164,V165,V166,V167,V168,V169,V170,V171,V172,V173,V174,V175,V176,V177,V178,V179,V180,V181,V182,V183,V184,V185,V186,V187,V188,V189,V190,V191,V192,V193,V194,V195,V196,V197,V198,V199,V200,V201,V202,V203,V204,V205,V206,V207,V208,V209,V210,V211,V212,V213,V214,V215,V216,V217,V218,V219,V220,V221,V222,V223,V224,V225,V226,V227,V228,V229,V230,V231,V232,V233,V234,V235,V236,V237,V238,V239,V240,V241,V242,V243,V244,V245,V246,V247,V248,V249,V250,V251,V252,V253,V254,V255,V256,V257,V258,V259,V260,V261,V262,V263,V264,V265,V266,V267,V268,V269,V270,V271,V272,V273,V274,V275,V276,V277,V278,V279,V280,V281,V282,V283,V284,V285,V286,V287,V288,V289,V290,V291,V292,V293,V294,V295,V296,V297,V298,V299,V300,V301
there,-0.018132,-0.03525,0.096727,-0.119276,-0.076797,-0.083136,0.056748,-0.071822,-0.090115,-0.018511,-0.021973,0.002964,-0.109521,-0.00455,-0.054414,0.027939,0.132878,0.028135,-0.104125,0.08701,-0.059727,0.026781,-0.015579,0.125937,0.14848,-0.002143,0.101098,-0.028366,0.15319,-0.129324,-0.12278,-0.147754,-0.032568,0.026532,-0.055707,0.121777,-0.188616,-0.137308,-0.00488,-0.017394,-0.029541,-0.006684,0.105362,-0.13699,-0.007206,-0.050455,-0.044719,0.075444,0.067833,-7.3e-05,0.075814,-0.050908,-0.049418,-0.105538,-0.010388,-0.069393,-0.067402,0.020602,-0.00954,0.120823,0.087975,-0.162482,-0.031266,-0.083098,0.098831,-0.003833,0.04092,0.001795,0.086937,0.03886,-0.206253,-0.004018,0.135262,0.063517,0.17259,0.009378,0.022394,0.04797,0.104303,0.001505,0.055394,-0.023465,-0.05953,-0.079873,-0.109752,-0.069543,0.014219,-0.065617,0.183896,-0.052379,0.008177,-0.060877,-0.030364,0.064065,-0.058618,0.092995,-0.074304,0.18132,0.085029,0.082968,0.105241,-0.163045,-0.025483,0.126653,0.135433,-0.121974,-0.138433,0.015019,-0.040738,-0.046959,-0.027423,-0.010089,-0.088427,-0.191511,0.125696,0.166856,-0.036144,-0.038406,-0.025536,0.068676,0.073321,-0.005148,-0.067809,-0.021653,-0.023005,0.036657,-0.020301,-0.052319,0.133895,-0.006091,-0.049433,0.179066,-0.07372,-0.019356,-0.166904,-0.048582,0.030166,-0.02033,-0.010141,-0.035564,0.017276,0.056786,0.005963,-0.028819,0.247656,0.037098,0.083861,0.174556,0.146237,0.180282,-0.089265,-0.075884,-0.00476,-0.053034,-0.019867,-0.079615,-0.034948,-0.080201,-0.07922,-0.012901,0.066347,0.016204,0.026902,-0.140583,-0.116747,0.023407,0.225155,0.094985,0.139528,-0.053614,0.021328,-0.047292,-0.011817,-0.010099,-0.001322,-0.040872,-0.035878,0.061895,0.234894,-0.100924,-0.011237,0.070999,-0.04738,-0.050883,-0.047932,-0.145076,0.059333,0.074043,-0.052165,-0.058457,0.007072,0.02335,-0.038893,0.045428,0.080492,0.111484,0.035238,0.065234,-0.037972,-0.099753,-0.003211,0.082981,-0.047981,-0.067412,-0.00747,0.07509,-0.036161,-0.055572,0.03144,0.1488,-0.023568,0.185126,0.079493,0.084877,0.013966,0.112042,-0.065385,-0.022752,-0.086792,-0.069683,-0.074681,0.02368,0.166521,0.05584,0.066092,-0.087484,0.116344,-0.083195,-0.008059,0.020702,-0.058664,0.139683,-0.12372,0.025174,-0.041461,-0.040421,-0.006378,-0.15037,0.029052,0.051732,0.010353,0.181993,0.142423,0.032746,0.017432,-0.022136,-0.073988,0.087658,0.065715,0.03297,-0.03068,0.042449,-0.131412,-0.072158,-0.041978,0.164803,-0.060642,0.120536,-0.016204,0.108581,-0.066901,-0.0125,-0.071572,0.059466,0.103661,-0.10459,-0.013099,-0.126524,-0.066232,0.054801,-0.041777,0.006342,0.015612,-0.07914,-0.062928,0.029013,0.00139,0.116394,0.003311,0.057384,0.068109,0.059421,0.048803,-0.080835,0.035405,-0.058176,-0.016837,0.037004,-0.152346,-0.022425,0.057628,0.113912,-0.056714,0.047004,-0.060864,-0.0639,-0.06681,0.184052,-0.078308,0.015502
here,-0.08457,-0.107182,0.211724,-0.14104,-0.134436,-0.014157,0.058052,-0.090503,-0.016242,0.007197,-0.014443,-0.051954,-0.086919,-0.05597,0.031137,0.102291,0.059193,-0.027329,-0.1031,0.06184,-0.05458,0.097132,-0.009484,0.128526,0.184394,0.056859,0.051345,-0.085105,0.030696,-0.176484,-0.051956,-0.149711,-0.062232,-0.017928,-0.069331,0.065489,-0.160792,-0.009223,0.079364,0.022852,0.002611,0.081026,0.035308,-0.003814,-0.0542,-0.090086,-0.043599,0.111683,0.058369,-0.061914,0.087354,-0.027693,-0.072201,-0.120319,-0.0672,-0.087533,-0.05709,-0.052793,-0.010089,0.136429,0.019859,-0.04418,0.022757,0.023653,0.116213,0.10309,0.100891,-0.080394,0.15767,-0.017302,-0.107048,-0.008947,0.053113,0.015646,0.144022,0.029617,0.030611,0.021435,-0.051551,0.032217,-0.003515,0.077885,-0.02432,-0.025904,-0.139249,-0.07165,0.027973,-0.105677,0.234266,-0.081393,-0.082539,-0.028046,-0.065725,0.081545,0.028438,0.10357,-0.081126,0.072495,0.104817,0.162718,0.005438,-0.06655,-0.049638,0.141157,0.130026,-0.085914,-0.153094,0.071792,-0.042539,-0.030768,-0.01133,-0.020207,-0.065448,-0.197384,0.048749,0.093004,-0.133698,-0.049397,0.02354,0.036173,0.042525,0.038292,-0.098542,-0.118482,-0.041052,-0.061472,0.070342,-0.101075,0.100396,-0.025384,0.038867,0.061101,-0.10911,0.010839,-0.155545,-0.084759,0.08146,-0.064645,-0.072766,0.001506,0.030093,0.095736,0.074472,0.008627,0.126972,0.001541,0.034302,0.033249,0.141662,0.208433,-0.005166,-0.033262,0.004583,0.034496,0.112476,-0.159969,-0.044204,0.013221,0.012802,-0.027091,0.147586,0.01632,0.113898,-0.209428,-0.051685,0.117976,0.154736,0.032067,0.138452,-0.070212,-0.000189,-0.084504,0.000543,-0.064495,-0.052181,-0.060191,-0.086275,0.102309,0.075273,-0.071986,0.036499,0.116285,-0.099147,0.054313,-0.074378,-0.058277,0.026401,0.092905,-0.004698,-0.026392,-0.000962,0.00518,-0.1377,-0.038711,0.035617,0.12826,-0.012281,0.17943,-0.146941,0.000695,0.046445,0.005679,-0.050089,-0.07133,0.006604,0.022857,-0.061266,-0.058992,-0.024844,0.062739,0.044482,0.120265,0.220501,0.148356,0.065432,-0.01329,0.041078,0.018804,-0.019822,-0.042982,-0.095858,0.037506,0.165627,0.069303,0.147253,0.024106,0.091148,-0.043854,0.048498,0.005497,-0.091181,0.109037,-0.024677,0.028785,-0.026253,-0.077319,0.005277,-0.14174,0.097922,0.061524,0.002405,0.171384,0.10063,0.005034,0.034402,-0.031148,-0.161066,0.183934,0.026278,0.023793,-0.004812,0.070053,-0.156297,-0.067124,-0.028266,0.004478,-0.039758,-0.038207,-0.011312,0.118634,-0.031933,0.009831,-0.025322,0.020371,0.085324,-0.025591,0.066615,-0.060672,0.022094,0.051699,-0.06658,-0.056582,0.021281,-0.100645,-0.088139,0.046999,0.001788,0.013442,-0.061939,0.039663,0.073044,0.047803,0.085336,0.049253,0.005018,-0.082126,-0.043681,0.052581,-0.135515,-0.066402,0.026874,0.174524,-0.050364,0.074341,-0.061439,-0.160005,-0.031396,0.080213,-0.003292,-0.034821
two,-0.116462,-0.063515,0.150782,-0.182648,-0.016307,0.024478,0.138985,-0.050134,-0.041346,0.028674,0.053745,-0.232828,0.023321,0.068865,-0.182456,0.186322,-0.090869,0.027487,-0.122498,-0.099521,-0.308723,0.176624,-0.060955,0.002914,0.207704,-0.028295,0.084332,-0.014454,0.018608,-0.089702,0.002537,0.001324,-0.036261,-0.032146,0.04574,0.071815,-0.063083,-0.06477,0.032717,-0.033489,0.049349,0.037853,0.200721,-0.048833,0.104544,-0.056817,0.084772,-0.086238,0.186806,0.102293,0.00258,0.119085,0.028056,-0.064285,0.020624,-0.081287,0.066896,0.065512,-0.002169,0.233731,0.046949,-0.126619,-0.059776,-0.123121,0.034405,0.058046,0.05258,-0.202748,0.132931,-0.073594,-0.248428,-0.122669,-0.056834,-0.080648,0.022521,-0.071589,0.048149,-0.030699,-0.030106,-0.083113,0.056801,0.027686,-0.052155,-0.060571,-0.057756,-0.145084,0.006846,-0.168509,0.199318,0.075382,0.094479,-0.154002,-0.091276,0.032285,-0.009677,0.130493,0.02469,0.02319,0.052061,-0.066687,-0.079977,-0.013392,-0.006638,0.010292,0.184544,-0.007572,0.028926,-0.001936,-0.149568,0.009366,0.029185,0.030219,0.025174,-0.115643,0.168142,0.031181,-0.003443,0.158102,0.160423,0.047457,0.048892,0.179472,0.022708,-0.025677,0.030697,0.14886,0.040857,0.153879,0.111381,0.250971,-0.052729,0.21611,-0.099608,0.145167,-0.058855,0.082613,-0.062621,0.214999,0.010203,-0.080173,-0.023317,0.115413,-0.028127,0.100596,0.175211,-0.036856,0.126492,0.119073,0.132819,0.22459,-0.077978,-0.214726,-0.034929,0.021928,0.156549,-0.220649,-0.04529,-0.071185,-0.029028,-0.03811,0.227711,0.013479,0.109719,-0.238625,0.015037,0.024585,-0.066283,-0.02551,0.002186,-0.125906,-0.14644,-0.130693,-0.03757,-0.08522,-0.051913,0.022541,-0.080755,0.126413,0.138091,0.041637,0.089655,0.111535,-0.002951,-0.062731,-0.06657,-0.055844,0.124283,0.038926,-0.121064,-0.091924,-0.194001,0.002104,-0.036796,-0.030674,0.112449,0.163921,-0.006122,-0.167241,-0.078807,0.00547,0.12,0.010985,-0.175471,-0.117332,0.099256,-0.00129,-0.144858,-0.026462,0.044214,0.107175,-0.08464,-0.045494,0.074139,0.180578,0.135774,0.096847,-0.073073,-0.073528,0.026594,0.191985,-0.03288,-0.016769,0.130846,4e-05,0.134518,-0.058171,0.212735,0.073144,-0.029139,0.085257,0.006664,0.057094,-0.033509,0.098217,0.037096,-0.019703,0.063784,-0.018167,0.124184,-0.166908,-0.009288,0.076383,0.053886,0.023511,0.185408,-0.21619,-0.021336,0.252043,0.188361,0.085221,-0.060181,0.077872,-0.114028,0.032416,0.101981,0.165311,-0.110531,0.06448,-0.016645,-0.029599,0.052737,0.187033,0.05286,0.063053,-0.143985,-0.026765,-0.046015,-0.089723,-0.094811,-0.037168,-0.119229,-0.179653,0.101795,-0.216756,-0.001254,0.09475,0.011538,0.014083,0.02588,0.09489,-0.081841,0.001933,0.127802,-0.08674,-0.068642,0.181128,0.088993,-0.001329,-0.101268,0.056131,-0.027092,0.123707,-0.042218,-0.022486,-0.104693,-0.109454,0.050792,0.024207,-0.215222,-0.0111
go,-0.090573,-0.101419,0.166233,-0.071363,-0.212612,-0.04123,0.021526,-0.070464,-0.010423,0.058047,0.068309,-0.036312,-0.051137,-0.01688,-0.031582,0.176915,-0.033578,-0.031523,0.037251,0.067945,-0.12379,0.054174,-0.032247,0.00711,0.291712,0.080159,-0.016661,-0.097926,0.07251,-0.0829,-0.020607,-0.249858,-0.000224,0.074384,-0.08276,0.094224,-0.181105,-0.228178,0.01992,-0.08944,-0.048101,0.000573,0.005418,-0.115909,-0.009868,-0.215022,-0.110627,0.104816,0.037768,-0.00621,0.065019,-0.100314,-0.123621,-0.145054,0.050577,-0.110852,-0.095366,-0.044644,-0.102169,0.193593,0.02878,-0.060881,-0.134865,-0.004216,0.162547,0.06627,0.193602,-0.134571,0.148021,0.046058,-0.058447,-0.210867,0.117385,0.062039,0.126105,0.094604,0.013081,0.137579,0.04059,0.014689,-0.018539,0.114539,-0.086682,-0.129087,-0.067243,-0.23841,-0.064669,-0.198603,0.139337,-0.075775,-0.264791,-0.030605,-0.002891,0.014862,0.008826,0.163341,-0.083832,-0.117207,0.115727,0.106949,-0.141282,0.076628,-0.058345,0.034382,0.089285,-0.229911,-0.040656,-0.030333,0.004538,0.05868,-0.045602,-0.078931,-0.032808,-0.107001,0.133882,0.145079,-0.098772,0.031977,0.04186,-0.133402,-0.08327,0.036062,-0.114883,0.029433,-0.017797,0.029795,0.110669,-0.181664,0.168103,0.00054,0.050495,0.028526,-0.032814,-0.041954,-0.234525,0.031723,-0.002122,0.053827,0.075723,-0.238182,-0.016276,0.120973,-0.009617,0.029545,0.252437,0.010901,0.021153,0.052857,0.157648,0.101388,0.005069,-0.13507,0.023587,0.039951,0.067427,-0.240076,0.030587,-0.064381,0.003035,-0.08359,0.087691,-0.004795,0.230369,-0.199533,-0.197689,0.018416,0.165234,0.011424,0.160904,-0.08085,-0.107051,-0.115304,0.124835,-0.041007,0.007172,0.020052,-0.094441,0.239642,0.086246,-0.01339,-0.020897,0.062795,-0.012536,-0.061599,-0.079694,-0.134105,0.076189,0.129382,0.02628,-0.040269,0.074392,0.032429,-0.143914,-0.058327,0.100513,0.108544,-0.029526,0.136331,-0.138877,-0.02856,0.079251,-0.016872,0.147056,-0.027096,-0.03309,-0.01611,-0.105731,-0.113854,-0.089342,0.033375,0.066149,0.07164,0.151113,0.111241,0.050571,0.061236,0.012034,0.003933,-0.002087,-0.121309,-0.12092,0.067714,0.286721,0.150705,0.123133,0.000177,0.007944,-0.116567,0.009868,0.054371,-0.15277,0.101158,-0.139679,0.107503,0.024585,-0.162046,-0.016941,-0.113391,0.176851,-0.012673,0.000932,0.166488,0.130517,-0.051656,-0.075308,0.010218,-0.081729,0.017942,0.054989,0.001859,0.008202,0.050824,-0.057248,-0.072354,0.082126,0.040291,-0.107074,-0.074831,-0.02659,0.178891,0.091772,0.054574,-0.054838,0.065244,0.195463,0.002827,0.014326,0.009576,-0.072542,0.017588,-0.060138,-0.024973,-0.016278,-0.071923,0.107426,0.063026,0.046928,0.068855,-0.060079,0.188424,0.02967,0.006871,0.01238,0.032697,-0.037083,0.030873,0.023073,0.041212,-0.166997,-0.101654,-0.045314,0.208479,-0.110061,0.048964,-0.081638,-0.069813,0.033687,0.090853,0.045782,-0.063396
back,-0.031272,-0.112703,0.130714,-0.089828,-0.137364,0.019114,0.083365,-0.129057,-0.012386,-0.040482,0.098258,-0.061033,-0.132949,0.00631,0.086505,0.053961,-0.051709,-0.02867,-0.117179,-0.050784,-0.107695,0.042984,0.051143,0.116463,0.219937,0.020548,-0.014231,-0.017917,0.080181,-0.222589,-0.026042,-0.122532,-0.048336,-0.021942,-0.029464,0.040026,-0.176878,-0.127484,0.034299,-0.060452,-0.001478,0.038577,-0.016081,0.045721,-0.020732,-0.167083,-0.096768,0.122248,0.035368,0.088053,0.08671,-0.048936,0.06984,-0.137771,0.073689,0.04784,-0.003533,-0.052551,-0.082318,0.137246,0.015093,-0.063145,-0.029302,-0.016182,0.22003,0.087195,0.105226,-0.066254,0.14296,-0.077183,-0.126173,-0.169841,0.088797,0.006888,0.137552,0.061158,0.15927,0.024817,0.094523,0.0912,0.010705,0.125193,0.088159,-0.038109,-0.076389,-0.055304,0.075286,-0.224896,0.234309,-0.107764,-0.041993,-0.103316,-0.046838,0.174947,0.010598,0.123627,-0.053861,-0.038325,0.083984,0.137497,-0.128869,0.101434,-0.028123,0.174671,0.102727,-0.022055,-0.21572,0.119086,-0.097809,-0.047912,0.035575,0.025742,-0.120232,-0.031041,-0.035418,0.026057,-0.247447,-0.030687,-0.0165,-0.056567,0.007505,0.093621,-0.093877,0.00034,0.011411,0.060077,0.057585,-0.104358,0.103347,-0.000357,0.084464,0.116738,-0.128107,0.011196,-0.220762,0.038324,0.060845,0.019456,0.100368,-0.090519,-0.113741,0.102936,0.056008,-0.010864,0.11004,0.029388,0.004836,0.026539,0.183649,0.10137,0.069615,-0.182704,-0.019417,0.142799,0.093146,-0.2379,-0.114405,-0.004239,0.094807,-0.148507,0.073227,-0.04104,0.20957,-0.158344,-0.057714,0.076004,0.035142,-0.020298,0.175781,-0.023654,-0.131368,-0.063308,-0.058874,-0.014588,-0.067512,0.043881,-0.063371,0.05354,0.176071,-0.049839,0.017999,0.080073,-0.031856,0.091595,-0.034669,-0.019638,0.073201,0.143546,0.051508,-0.002352,-0.057316,-0.000752,-0.016981,-0.015823,-0.024739,0.160371,-0.063078,0.102061,-0.103313,-0.120992,0.092066,0.094504,0.038922,-0.106403,-0.076544,-0.010998,0.027392,-0.150146,-0.027147,0.018088,0.02567,0.018133,0.116547,0.171186,0.090107,-0.006219,-0.08028,0.023085,0.124946,-0.128271,-0.178754,0.013772,0.237513,0.133282,0.068685,-0.143463,0.087683,-0.005364,0.069192,-0.028031,-0.133829,0.107601,-0.132956,0.123475,0.01671,-0.103174,-0.100691,-0.249173,0.104718,0.083756,0.000101,0.167743,0.03317,-0.057068,0.005389,0.044743,-0.089253,0.138205,0.083454,0.04243,-0.139926,0.150286,-0.073108,0.036009,0.02869,-0.040521,0.022036,-0.058973,0.015057,0.105847,0.066262,0.046002,-0.000334,0.106015,0.236301,0.02473,0.016029,0.046389,-0.00372,0.125972,0.03414,-0.087687,0.064654,-0.006283,-0.018803,-0.032447,-0.071138,0.062549,0.032226,0.111445,0.080932,0.03626,-0.034357,0.009062,-0.022158,0.012219,-0.04262,0.019727,-0.107886,0.029453,0.015431,0.139413,-0.076394,0.002427,-0.162597,-0.034069,-0.084626,0.109312,0.026275,-0.041204
come,0.042601,-0.132848,0.104046,-0.171459,-0.15689,0.02711,0.008155,-0.099611,-0.016161,0.086235,-0.044453,-0.116653,-0.060133,-0.110346,0.057916,0.116676,-0.003034,-0.007973,-0.105003,-0.005535,-0.139027,0.062275,-0.066898,0.206891,0.216546,0.079528,0.104782,-0.150133,0.0625,-0.101445,-0.063509,-0.216005,-0.093028,-0.02214,-0.064963,0.044631,-0.176604,-0.165931,0.036403,-0.066343,-0.046445,0.074085,-0.072047,-0.093736,-0.056991,-0.14457,-0.139167,0.033493,-0.024839,0.010279,0.038415,-0.021469,-0.106713,-0.258151,-0.037922,0.010918,0.041492,-0.119982,-0.083029,0.098904,0.004941,-0.019608,0.014215,-0.009152,0.23542,0.170214,0.135913,-0.089788,0.081133,-0.02298,-0.215843,-0.057108,0.085812,-0.027852,0.088048,0.153174,-0.045573,0.119055,-0.118383,0.091525,-0.036751,0.058599,-0.043557,0.091071,-0.077384,-0.161506,-0.016915,-0.121608,0.19751,-0.072002,-0.223294,-0.086785,0.101881,0.085652,-0.066566,0.076275,-0.096152,-0.0688,0.106075,0.155532,-0.060697,0.085981,-0.126654,0.091829,0.04301,-0.193025,-0.215085,-0.010485,-0.038401,-0.04583,-0.010142,-0.113826,-0.021133,-0.135526,-0.045806,0.066341,-0.031877,-0.082533,-0.005283,-0.034409,-0.048467,0.059903,-0.057694,-0.02431,0.037432,0.023809,0.07225,-0.135737,0.13047,0.020726,-0.012568,-0.017648,-0.078326,0.06756,-0.19011,-0.053919,0.019444,-0.071647,-0.055931,-0.065691,-0.116202,0.09576,-0.008268,0.006923,0.194764,-0.001778,0.040825,-0.014261,0.179705,0.154223,-0.000287,-0.054174,0.085724,0.02985,0.050289,-0.28754,0.018022,-0.058172,-0.026161,-0.097643,0.071472,-0.036918,0.111914,-0.179889,-0.243502,0.141902,0.187507,-0.057847,0.154871,-0.077867,-0.040698,-0.085473,0.013942,-0.145557,-0.139296,0.090711,-0.044915,0.144825,0.074881,-0.00938,0.003224,0.036076,-0.039613,-0.030512,-0.15604,-0.084439,0.006337,0.177499,0.036039,-0.041831,-0.011106,-0.077626,-0.107476,-0.142887,-0.032671,0.124886,-0.042838,0.16688,-0.124947,-0.043949,-0.02599,-0.065372,0.051221,0.099086,-0.054059,-0.05412,-0.055072,-0.122232,-0.134098,0.07749,0.016206,0.054669,0.153274,0.061256,-0.014943,0.005006,-0.001682,-0.004613,-0.058148,0.010448,-0.12545,0.027459,0.252806,-0.032912,0.193455,0.037038,0.123626,-0.001607,0.086747,-0.053736,-0.046971,0.08827,-0.146955,0.007059,-0.105805,-0.137194,-0.047574,-0.147747,0.177706,0.008922,0.033102,0.213518,0.116035,0.067825,-0.026524,0.032442,-0.151621,0.075968,0.020448,-0.019187,-0.012489,0.052093,-0.142495,-0.095106,0.057971,0.034019,-0.034828,-0.064487,-0.042018,0.288359,0.06422,0.054166,0.048079,0.052889,0.081439,-0.073315,-0.003216,-0.045603,0.025305,0.033559,-0.101308,-0.122313,-0.059933,-0.064253,-0.038975,0.028722,0.027405,0.052554,-0.096535,0.101277,0.151631,-0.024563,0.145964,0.150076,-0.162885,-0.041487,0.034856,0.042955,-0.118769,-0.091863,-0.072971,0.160596,-0.137364,0.105791,-0.05428,-0.149376,0.019631,0.114407,0.077363,-0.077871
think,-0.011576,0.007064,0.107352,-0.113047,-0.04711,-0.099442,-0.015019,0.002584,0.074378,0.039794,0.053715,-0.033344,-0.149706,0.033439,0.007728,-0.037129,0.004698,-0.031402,-0.032173,-0.002212,-0.16759,0.064067,0.100262,0.058799,0.168775,-0.029661,0.190111,-0.06154,0.111704,-0.081847,-0.081035,-0.012163,-0.116741,-0.024771,-0.032555,0.152802,-0.106083,-0.113658,0.040759,-0.089602,-0.129225,0.032862,-0.049009,-0.058065,-0.092577,-0.107311,-0.137355,0.013505,0.046544,0.114938,0.061148,-0.045078,-0.076854,-0.026747,0.022997,-0.075416,-0.019167,-0.108548,-0.046144,0.151538,0.184562,-0.105919,-0.071898,-0.059944,0.004417,0.078817,0.146068,-0.081219,0.12513,-0.048578,-0.034095,0.025303,0.096372,0.076444,0.078699,-0.008491,0.005047,-0.117774,0.015783,0.042317,-0.048635,0.018118,0.043248,-0.041689,-0.141516,-0.163225,0.005457,-0.17121,0.1142,-0.05942,-0.147606,-0.102576,0.015598,0.051213,-0.055976,0.147588,-0.064554,0.082855,0.12067,-0.067089,-0.024659,-0.042324,0.052069,0.11236,0.154254,0.017081,-0.091628,0.001288,-0.049488,0.035183,-0.086397,-0.124174,-0.06274,-0.100003,0.041068,0.028288,-0.070047,-0.032688,0.027873,0.073646,-0.077235,0.043484,-0.193226,-0.101179,-0.057519,0.044155,0.139587,0.02083,0.102436,0.021146,0.061848,0.160256,-0.087286,-0.084104,-0.17102,-0.002288,0.039665,0.042755,0.019191,0.025159,0.041247,0.062673,0.082543,0.010605,0.092885,-0.024311,0.034754,0.158825,0.09443,0.096207,0.09594,-0.170567,0.045069,-0.006362,0.091915,-0.061791,-0.028814,-0.130725,-0.098452,0.006876,0.009078,0.027605,0.04411,-0.154899,0.022585,0.012309,0.1094,-0.052859,0.161588,0.020356,-0.040428,-0.095186,0.087893,0.023925,0.065502,0.063393,-0.021811,0.163203,0.113452,0.009167,0.013659,0.038071,-0.026797,0.041149,0.006666,-0.070983,-0.010634,0.101969,-0.033564,0.020435,0.167785,0.023913,-0.122622,-0.094146,-0.024403,0.071059,0.020424,-0.038057,-0.111567,-0.079548,0.040727,0.052387,-0.041438,-0.056636,0.064883,0.045262,-0.067951,-0.071036,0.027175,0.073151,-0.055438,0.034438,0.099988,0.114465,0.040643,0.043469,-0.018643,0.03831,-0.011833,-0.062792,-0.081411,-0.091212,0.180134,0.194766,0.09151,-0.066441,0.05608,-0.088537,-0.045287,-0.024856,0.02612,0.080402,-0.119006,0.058125,0.000325,-0.045191,0.042189,-0.082493,0.021651,0.009285,-0.020558,0.184013,0.160409,0.067983,0.010726,0.016427,-0.204616,0.036025,0.156133,-0.132704,0.002333,0.030064,-0.138621,-0.019065,0.003601,0.000291,0.122583,-0.005746,-0.024983,0.02764,-0.004138,-0.140924,0.022973,0.195402,0.163101,-0.040007,0.019156,0.005159,0.03473,-0.010836,0.017112,-0.092762,0.103491,-0.159706,-0.084872,0.101278,-0.008823,-0.057084,-0.041063,0.070518,-0.123775,0.054314,-0.070152,0.086706,-0.037456,-0.061299,-0.002961,0.00037,-0.103674,-0.009339,0.115547,0.085883,0.008401,0.070937,-0.057967,-0.096475,-0.083501,0.12838,-0.05226,0.013342
find,-0.103482,0.079051,0.141899,-0.110015,0.097599,-0.12767,-0.083168,0.033741,-0.026972,0.096665,0.084818,0.018396,-0.06326,0.009182,0.033427,-0.065448,0.023269,0.057916,-0.112082,0.088639,-0.089027,-0.018347,0.039603,0.04974,0.152037,0.110366,0.024268,-0.119004,0.064038,0.040389,-0.095819,-0.074017,-0.102615,-0.032799,0.059781,-0.075615,-0.15797,-0.038721,-0.070985,0.03569,-0.001541,0.015048,0.050782,-0.058715,0.014414,-0.075275,-0.110106,-0.004877,0.095041,-0.064234,0.063604,0.065834,-0.262536,-0.192117,-0.050776,-0.016797,-0.067912,-0.056857,-0.00065,0.245369,0.018141,-0.082658,-0.038456,-0.05792,-0.033873,0.095365,0.173233,0.100024,0.241753,0.082143,-0.117068,0.051257,0.110497,0.02658,0.092782,-0.099548,0.054139,0.069101,-0.024726,-0.034304,0.02973,0.029123,0.15308,-0.036808,-0.071336,-0.075431,0.059397,-0.066807,0.171029,-0.09539,-0.106695,-0.084441,0.040114,0.139703,-0.038203,0.209528,-0.115789,0.090565,0.049906,-0.012942,-0.120008,-0.10441,-0.138965,0.027421,0.096933,-0.187453,-0.242195,0.012787,-0.00096,0.045252,-0.120396,-0.138769,-0.046259,-0.130806,0.057781,0.124406,-0.092173,-0.005934,0.041872,-0.054741,-0.014077,0.232097,-0.204573,-0.206708,-0.096411,0.054601,0.196289,-0.126281,0.119041,-0.033645,0.09497,0.125533,-0.005683,-0.022137,-0.191253,-0.006904,0.031551,0.071456,0.026037,-0.077202,-0.121324,0.063418,0.147616,0.040019,0.0899,0.057461,0.038759,0.062553,0.248264,0.264874,-0.094131,-0.071083,0.093624,0.054121,-0.018082,-0.017355,-0.035684,-0.110337,0.009818,-0.039564,-0.053196,0.095765,0.013101,-0.221799,0.012976,-0.117953,0.161227,-0.073864,0.156983,-0.126527,0.008302,-0.145723,0.153246,-0.073674,-0.025719,0.003301,-0.152355,0.215824,0.315396,-0.128126,-0.023794,-0.013358,-0.06982,-0.048886,0.038967,-0.060702,0.104585,0.133859,-0.014266,0.04422,0.117685,0.037141,0.027107,0.02035,0.149092,0.090765,0.052165,0.05745,-0.159746,-0.084915,0.228345,0.069211,0.077152,-0.104654,0.017915,0.076123,0.01375,-0.115479,-0.081787,0.038554,-0.082041,0.178452,0.175245,0.159665,0.04021,-0.124453,0.064151,0.089255,0.059957,0.125805,-0.179883,-0.02889,0.198159,0.276237,0.037326,0.002721,0.038312,0.058641,0.019402,0.040417,-0.150983,0.077138,-0.094178,0.099879,0.049192,0.121389,0.005886,-0.362772,0.049349,0.043906,-0.030742,0.110006,0.180783,0.058159,0.020374,-0.018033,-0.04129,0.139158,0.039842,0.009558,-0.025836,-0.038637,-0.107508,0.00559,-0.16638,0.025097,-0.023912,-0.032144,0.200855,0.049466,0.057183,-0.123817,-0.090667,0.067619,0.14968,0.027809,-0.002574,0.017786,0.039887,-0.075687,-0.051646,-0.026088,-0.024496,-0.100802,-0.013226,-0.040485,-0.058874,-0.011816,-0.055722,-0.007944,0.048013,0.083748,-0.163192,-0.000589,0.06654,0.004369,0.030696,0.045528,-0.125535,-0.100235,-0.014264,0.123528,-0.168242,0.037549,0.023484,0.043923,-0.058789,0.083582,0.022977,0.01541
three,-0.145949,-0.084903,0.132144,-0.093862,0.076033,0.062919,0.041705,0.015889,-0.009442,0.029797,0.051044,-0.243941,0.020065,0.111061,-0.141293,0.222253,-0.154505,0.042888,-0.224673,-0.119378,-0.230644,0.241787,-0.033897,-0.116743,0.207706,0.038755,0.072009,0.079633,0.10113,-0.097815,0.080357,-0.18748,-0.066167,-0.030297,0.163803,0.044535,-0.070752,-0.117966,-0.079563,-0.104971,0.08643,0.055743,0.185677,0.016856,0.154973,-0.1491,0.01439,-0.073374,0.180958,0.07796,0.017338,0.032145,0.109872,0.053179,0.019759,-0.088716,0.078202,0.049813,-0.064277,0.20464,0.059758,-0.172474,-0.091834,-0.016479,0.092275,-0.024708,-0.001005,-0.213229,0.071333,0.001509,-0.177046,-0.110621,-0.012549,-0.02814,0.058989,0.017687,0.052683,-0.075313,-0.038163,-0.025501,0.070272,0.142414,-0.082536,-0.095417,-0.075368,-0.277237,-0.007797,-0.260033,0.204805,0.085094,0.118819,-0.140565,-0.229276,-0.00254,-0.029279,0.149315,-0.01446,0.084962,-0.100667,-0.02292,-0.173386,0.055177,0.011299,0.105414,0.083414,-0.054272,0.126319,-0.039089,-0.137926,-0.014216,0.011506,-0.004108,0.033023,-0.117955,0.130671,0.041806,-0.000891,0.062054,0.198084,0.037564,0.05443,0.163582,0.113977,-0.037192,0.090243,0.12277,0.119346,0.180467,0.114075,0.23873,-0.073222,0.228149,-0.063673,0.196161,-0.058371,0.058349,-0.00054,0.234873,0.048463,-0.074215,-0.083257,0.096594,-2.6e-05,0.13715,0.149842,-0.025288,0.117799,0.089365,0.003006,0.234188,-0.026409,-0.223295,-0.079545,-0.074083,0.150242,-0.140017,-0.056486,-0.086432,-0.017064,-0.027308,0.263454,0.067094,0.172583,-0.26723,0.000569,-0.049824,-0.154391,-0.093731,-0.077571,-0.141832,-0.140632,-0.05461,0.026147,-0.117635,0.05023,-0.004045,0.014471,0.152182,0.042531,0.0054,0.162173,0.108801,0.004406,0.005935,-0.173764,0.019468,0.151328,-0.033525,-0.056701,-0.093705,-0.212378,0.03574,-0.109402,-0.044563,0.112036,0.116888,-0.018841,-0.22785,-0.009502,0.034152,0.146287,-0.083764,-0.144755,-0.093476,0.048964,-0.045912,-0.088237,0.006494,0.047331,0.195206,-0.092448,-0.16541,0.10743,0.160279,0.168292,0.048025,0.056028,-0.164837,0.068041,0.16379,-0.050041,0.001109,0.189225,0.024829,0.112004,-0.01752,0.065558,0.078168,-0.130074,0.057093,0.009965,0.063868,0.006866,0.16517,0.009209,0.02805,0.088784,0.01395,0.105749,-0.125721,0.049268,0.076056,0.021753,0.02203,0.15675,-0.279723,-0.02631,0.260829,0.113374,-0.015029,-0.068704,0.141951,-0.126894,0.06583,0.223924,0.19046,-0.145155,0.083015,0.038172,-0.052067,0.017807,0.252313,-0.079495,0.092689,-0.070973,-0.13824,-0.087964,-0.049493,-0.155255,-0.123162,-0.159471,-0.122862,0.07611,-0.234852,0.004139,0.032003,0.048671,0.061476,0.051997,0.052461,-0.081779,0.073655,0.066279,-0.06826,-0.109065,0.183373,0.075883,0.073283,-0.092055,0.070173,-0.084364,0.17029,-0.032659,-0.044909,-0.105259,-0.137779,0.090147,0.058218,-0.075661,-0.042595
long,0.008613,-0.059393,0.209011,-0.148611,-0.139243,-0.069663,0.164003,-0.022188,0.076682,-0.020439,0.002604,-0.106649,-0.155485,0.268929,0.022549,0.205043,-0.061509,0.135494,-0.169296,-0.094403,-0.154961,0.0982,0.183409,-0.028331,-0.074165,0.040335,0.128617,0.077404,-0.068809,-0.062847,-0.034312,-0.118316,-0.079922,-0.071143,-0.042232,0.106875,-0.080681,-0.019651,0.093929,0.041476,0.04644,-0.185065,-0.085996,-0.232603,-0.078663,-0.033793,0.044122,0.137329,0.020739,-0.093207,0.079979,-0.099505,-0.034293,-0.02468,-0.156953,-0.252433,0.019697,0.174161,-0.099264,0.270074,0.083301,-0.032493,-0.037378,0.096205,0.131215,0.104647,0.149559,-0.108039,0.106771,-0.069428,-0.144288,-0.034592,-0.074921,0.061941,-0.012295,0.108301,0.082547,-0.007322,-0.026973,0.014868,0.075703,0.011114,0.131808,-0.050936,0.096466,-0.294871,0.036793,-0.264324,0.240307,-0.092914,-0.025291,-0.006938,-0.160482,-0.00541,-0.027021,0.040051,-0.113996,0.123211,-0.026497,0.00485,-0.074138,-0.006241,0.116635,0.08136,0.074028,0.016856,-0.084285,0.050001,-0.064039,-0.035071,-0.050442,-0.093471,-0.004245,-0.120655,-0.004128,0.141399,-0.161576,0.01407,0.145573,0.162193,0.109837,0.085147,-0.005268,-0.139764,0.028177,0.101531,0.013775,0.041351,0.078904,0.057143,-0.011825,0.011285,-0.157143,0.00444,-0.0996,-0.012466,0.107118,-0.022292,0.049053,-0.004976,-0.00374,-0.153886,0.101016,0.011809,0.202133,0.172954,-0.004499,-0.024361,0.045231,0.177241,0.144826,-0.170105,-0.011614,0.195199,0.073829,-0.075316,-0.141089,0.056148,0.04862,-0.145628,0.143005,0.125498,0.169167,-0.213439,0.017934,-0.028016,0.002142,-0.041928,-0.079426,-0.019227,-0.051124,-0.0924,0.023393,-0.045626,-0.033138,0.036209,-0.074995,0.078294,0.026679,-0.029052,-0.033515,0.045126,0.00792,0.198962,-0.093315,-0.118562,0.042477,0.238925,-0.062158,-0.041405,0.020956,-0.059081,-0.280895,-0.102791,0.077509,0.085614,-0.027037,-0.093062,-0.014636,-0.04895,-0.066944,-0.000139,-0.097036,-0.193151,0.085843,-0.174837,0.013439,-0.15519,0.021743,0.06557,-0.132759,-0.037164,0.296736,0.078781,0.138138,0.008324,-0.03498,-0.041671,0.053974,0.005754,-0.143013,0.035677,0.363854,0.196089,0.144798,-0.016574,0.024175,0.037008,0.121257,-0.06495,0.013784,0.078361,-0.027923,0.053015,0.104052,-0.003025,-0.00714,-0.151522,0.167131,0.129788,0.066043,0.234158,-0.147304,0.235537,0.152234,0.014914,-0.07742,0.273241,0.119663,-0.068789,0.043117,0.056709,0.201696,-0.000512,-0.015786,-0.028727,0.082311,0.034327,-0.0259,0.012712,0.158515,0.023492,0.06281,0.151339,-0.048065,-0.050298,-0.000934,0.060479,-0.169424,0.050198,0.057857,-0.002191,0.016156,-0.056283,-0.194487,-0.059651,0.046835,0.072746,-0.084528,0.17046,0.010578,0.128682,0.050963,-0.152865,-0.081373,-0.056998,-0.003465,0.041822,-0.206756,0.032177,0.046226,0.024195,0.041936,0.23647,0.074145,-0.159325,0.065905,0.059469,0.037712,0.007091
school,-0.190821,-0.027868,0.356276,-0.226995,0.053813,0.090133,-0.028992,-0.166879,-0.173813,-0.023663,0.200439,0.151094,-0.251988,0.086883,0.001141,0.065649,-0.099304,-0.070212,-0.040073,-0.000516,-0.018994,-0.015237,0.08132,-0.121893,0.312648,0.17523,0.061711,0.042076,0.134073,-0.146938,-0.01565,-0.147273,-0.018771,0.001693,-0.116975,0.237125,-0.122053,0.181647,-0.031698,0.123186,-0.069937,-0.023982,-0.112662,-0.041605,-0.045625,-0.104432,-0.132514,0.003272,0.065892,0.0098,0.364966,0.162108,-0.123838,-0.20385,-0.144649,-0.035982,-0.09851,-0.102298,-0.064252,-0.183401,0.049649,-0.017098,-0.308363,-0.039048,0.184346,-0.163037,0.013159,-0.269355,0.264951,-0.152727,-0.071079,-0.074048,0.026262,-0.123626,0.163159,-0.253633,0.007763,0.036741,-0.024402,0.121107,-0.123345,0.128007,0.278821,0.000943,-0.251837,-0.172627,0.203745,-0.074256,-0.048646,-0.437582,-0.25689,0.011715,0.089592,-0.085369,0.151039,-0.022363,0.035599,-0.05813,-0.096364,0.135598,0.055126,0.278802,-0.055404,0.010403,0.060741,-0.051464,-0.016274,0.096657,0.223689,0.001962,-0.116694,0.1855,-0.027628,-0.1999,-0.073844,-0.308235,-0.170762,-0.080501,0.115393,-0.011817,0.274836,0.127824,0.001958,0.035317,0.207241,0.117092,0.162143,0.042536,0.234597,-0.008183,-0.022173,-0.084527,-0.161605,-0.053558,0.032807,-0.034992,-0.107175,-0.000886,0.178583,-0.027018,0.124442,0.182193,0.037998,-0.126376,0.153984,-0.164331,-0.009587,0.149842,0.133647,0.07403,0.065192,-0.149531,0.01017,-0.13151,0.257675,-0.253623,0.20284,-0.065928,-0.029096,0.131495,0.152902,0.021117,0.119768,-0.177914,-0.209297,0.005928,0.015146,0.167244,-0.137413,-0.070635,-0.103119,-0.255948,-0.075744,-0.114084,-0.044409,0.033621,-0.330811,0.045756,0.252029,-0.023405,-0.095375,-0.174077,0.027805,0.05267,0.178104,-0.050998,0.070581,-0.153534,0.059356,-0.010739,0.136634,-0.021955,-0.237253,-0.147357,0.072971,-0.038705,-0.064032,0.133749,-0.076709,-0.120335,-0.12562,-0.031907,-0.003803,-0.177234,0.171808,0.018972,0.107045,0.000861,-0.106937,-0.026115,-0.131416,-0.089904,-0.049478,-0.16719,0.045646,-0.10179,0.199699,-0.291099,-0.117601,-0.141886,0.18095,0.059034,0.083731,0.076195,-0.036244,-0.252056,0.211582,0.038194,0.001536,0.202607,-0.032043,0.255488,-0.139079,0.113521,0.114479,-0.197493,0.005712,0.013787,0.130842,0.156576,0.027498,0.019255,0.182659,-0.035329,0.086455,0.007977,-0.093832,-0.14609,-0.025994,-0.237997,0.104816,0.066255,-0.112816,-0.253099,0.102247,-0.129305,0.20429,-0.109479,-0.041064,0.10621,0.036245,0.112462,0.219969,-0.005881,-0.069738,0.125117,0.087905,0.124515,-0.047277,0.080223,0.077351,0.219044,0.02165,-0.070912,0.079037,-0.035143,0.156199,-0.01067,-0.034646,-0.008447,0.00046,0.163172,-0.001932,-0.125959,-0.03329,-0.03528,-0.035894,-0.109754,0.071153,0.045379,0.09181,-0.010037,0.022734,-0.106259,-0.25104,-0.148122,-0.182166,0.004093,0.142731,-0.022225
high,-0.100713,0.12192,0.150873,-0.085737,0.118122,0.111297,-0.015804,-0.15321,0.292026,-0.051334,0.019552,0.094164,-0.133706,0.021504,0.139022,-0.076263,-0.055682,-0.138821,-0.001966,0.026894,0.023441,0.060389,0.221002,-0.069973,0.029271,-0.003886,0.212655,-0.042254,0.248979,0.068964,0.227067,0.047555,-0.166571,0.136521,-0.169375,0.100287,-0.211691,0.049169,0.015202,0.339301,0.005869,0.141124,-0.161926,0.036329,-0.079555,-0.077011,-0.075409,0.164187,-0.131731,0.18596,0.185378,0.105174,-0.005669,-0.015349,-0.303917,-0.158341,0.084145,0.075056,-0.256619,-0.008384,0.187945,-0.112608,-0.014996,-0.047332,-0.046141,-0.325554,-0.063732,0.003955,0.244648,-0.004363,0.192935,-0.099572,0.084923,-0.059576,0.241565,-0.078613,-0.152344,-0.10118,-0.048581,-0.026199,0.1915,0.106673,0.156596,-0.137299,-0.151813,-0.366158,0.321329,-0.317112,0.175601,-0.277426,-0.002603,0.121152,0.030033,-0.023103,0.117515,-0.238227,-0.18617,-0.145193,0.070025,0.173948,-0.088575,0.15977,-0.040639,0.017182,0.153273,-0.049664,0.091609,0.075533,0.056918,0.074263,-0.098443,-0.125088,0.299282,-0.050826,-0.200182,-0.148499,0.000559,0.114946,-0.082984,-0.013987,0.258589,0.209576,-0.073604,-0.006995,0.289874,0.088259,0.101088,-0.013854,0.082824,-0.226921,-0.17853,0.119814,-0.131107,0.065988,-0.225639,-0.071646,0.029302,0.116641,0.167343,-0.097391,0.077105,0.032068,-0.018249,-0.018393,0.275718,-0.23786,0.073391,0.090318,0.017621,0.080337,0.031762,0.015492,-0.134395,0.06703,-0.023412,-0.152364,-0.021308,-0.15237,0.020309,0.114202,0.24495,0.075019,0.060681,-0.170981,-0.160868,0.034956,-0.029797,0.149591,0.106095,0.201191,0.111354,-0.205891,0.064222,-0.179302,0.02625,-0.112292,-0.168408,0.030082,0.085969,0.117773,-0.000217,0.000822,0.208201,0.218542,-0.012269,-0.093125,-0.014835,-0.093108,0.005408,0.10971,0.049918,-0.030728,-0.020057,-0.021552,0.207268,-0.060678,0.129846,0.081688,-0.133051,-0.242149,-0.076629,0.151003,-0.071361,-0.020646,0.218697,-0.089051,0.029456,0.026535,0.2024,-0.004467,-0.108302,0.084623,0.101639,-0.330864,-0.149521,-0.056105,-0.018712,-0.102275,-0.012909,-0.276623,-0.123647,0.173927,-0.022679,0.087624,-0.029023,-0.314152,0.218679,0.105553,0.134431,0.141155,0.247037,0.236763,-0.162894,0.244418,0.023345,-0.165579,0.032982,-0.251084,0.065162,0.188775,0.19013,-0.079013,0.033297,0.134719,-0.076371,-0.388456,-0.096517,-0.078451,0.055388,-0.165194,0.267851,-0.10927,0.07715,-0.025562,0.065876,-0.035906,0.166281,0.010357,-0.020408,0.25109,-0.045579,0.125915,0.055943,0.130721,-0.023164,-0.121261,0.034288,0.100898,-0.027546,-0.017926,0.031783,-0.051336,-0.12568,0.069608,0.081801,-0.109774,0.04379,0.017439,0.318931,-0.023282,-0.113673,0.112092,-0.003254,-0.223389,0.074005,-0.068336,0.0262,0.037833,-0.023331,-0.020902,0.064932,-0.061883,-0.205022,-0.066049,-0.283994,-0.001232,-0.012603,0.217557,0.135186,0.061566
government,-0.020226,-0.042103,0.050075,-0.106225,0.122108,0.088963,-0.003705,-0.031108,0.013484,0.098027,0.01902,0.141971,-0.210807,0.10881,-0.052134,-0.049391,-0.00681,0.028951,-0.292001,-0.065049,0.045248,-0.082187,0.244166,0.023561,0.21063,-0.168029,-0.038563,-0.13963,-0.137025,-0.019629,0.137918,-0.161401,-0.024368,-0.223175,0.137957,0.116915,-0.006042,-0.066112,-0.209239,-0.09368,0.007125,0.006368,-0.047278,-0.013405,-0.03508,-0.167625,0.253837,-0.079912,0.00986,-0.036162,-0.002732,-0.052038,0.132979,-0.071013,-0.070212,-0.001646,0.054903,0.096102,-0.105516,-0.046537,-0.118834,-0.268682,-0.05695,-0.00258,-0.092642,-0.094224,0.013869,0.026403,0.159263,-0.127492,0.052032,0.132098,-0.039747,-0.084844,0.216395,0.131431,-0.199968,-0.160895,-0.062876,0.001125,-0.0035,-0.159432,-0.06466,-0.000236,-0.077692,-0.056121,-0.076346,0.103229,0.117244,-0.201288,-0.151087,0.092052,0.149301,0.126091,-0.220606,0.117532,-0.287047,0.066754,-0.056055,-0.062368,-0.243019,-0.225743,-0.00235,-0.197508,0.045332,0.000334,0.129878,0.021006,-0.04677,0.14352,-0.017738,-0.018462,-0.067661,-0.088374,-0.012438,-0.028592,-0.062587,0.045813,0.06512,0.144793,0.173453,0.072776,-0.271552,-0.137723,-0.137606,-0.008875,0.176512,0.113957,-0.054521,0.028527,0.141973,-0.086777,-0.114461,0.18144,0.09707,0.231441,0.012017,-0.149267,-0.00908,0.006652,-0.14367,0.139244,-0.079174,-0.120768,0.074881,-0.00188,-0.064308,0.159915,0.08309,-0.200174,-0.046393,-0.234837,0.069322,0.043855,0.169067,-0.0496,-0.237007,0.065437,-7.4e-05,0.036179,0.145941,-0.090561,0.162701,-0.175127,-0.256314,0.164403,0.101289,-0.077094,0.096383,0.017154,-0.096815,-0.05256,-0.012544,-0.011244,0.091314,-0.112011,-0.210398,-0.091271,0.031115,0.085849,0.014046,0.206929,0.019554,0.15255,0.005784,0.207147,0.191702,-0.114681,0.053711,0.065963,0.084163,-0.193046,-0.043878,-0.097491,-0.150581,0.056922,0.069505,0.290466,-0.023811,-0.2517,-0.010808,0.001761,-0.136112,-0.199719,-0.046614,0.058734,0.205976,0.13421,0.070376,-0.163033,-0.02858,0.011169,-0.009914,-0.040236,0.172017,-0.12559,-0.100625,-0.045739,0.12085,0.006792,0.05289,0.141736,0.077716,0.011155,0.046353,-0.021571,0.102671,0.204253,0.099526,-0.093436,0.021021,0.022828,0.02313,0.099492,0.095361,0.012725,-0.00223,-0.016802,-0.074809,0.287757,0.052336,0.08402,0.027619,-0.081353,-0.016484,-0.02831,-0.210743,0.111519,0.218586,0.20962,0.016461,0.162301,-0.056406,-0.087295,-0.11959,0.177335,-0.003486,0.026167,-0.069326,-0.109483,0.099024,-0.165375,-0.20978,-0.081424,0.023206,-0.156079,0.104822,-0.089603,0.064387,-0.020102,0.095762,0.141287,0.105167,0.239347,-0.074214,0.011138,0.133817,-0.084085,0.009228,0.218322,-0.122964,0.025446,-0.043821,-0.074785,0.048621,-0.079717,-0.108991,-0.227812,-0.234176,-0.110418,0.031962,-0.023815,-0.020967,0.288726,0.017442,-0.203464,-0.092824,-0.095762,-0.039151,-0.075708
care,0.118959,-0.131864,0.059881,-0.133999,-0.294754,-0.083594,0.106039,-0.110481,0.043266,-0.087098,0.01651,-0.069785,-0.253342,0.09849,0.056964,-0.007574,-0.124818,0.073696,-0.133506,-0.11337,-0.160795,0.104416,0.04929,0.168767,0.123443,-0.068728,0.15485,-0.130358,0.03453,-0.130583,0.087805,-0.11451,-0.049129,0.041527,-0.023133,0.077079,-0.05927,-0.110877,0.027452,0.137937,-0.011591,-0.078804,-0.055148,0.016107,-0.084647,-0.155127,0.063559,0.158279,0.085503,0.156259,0.101325,0.086146,-0.21132,-0.012346,-0.039445,-0.045905,-0.164013,-0.088859,-0.170293,0.074669,0.048864,-0.124981,-0.267078,0.084886,0.066454,0.160057,0.04448,-0.188038,0.043632,0.136951,-0.139066,-0.1295,0.056487,-0.018152,0.080548,-0.227642,0.211705,0.023889,0.078944,-0.018259,-0.245167,0.222557,0.205282,-0.067372,0.113659,-0.185231,0.074402,-0.042803,-0.093701,-0.138446,-0.114788,-0.073585,-0.085159,0.109854,0.092927,-0.047815,-0.133608,0.194548,0.154979,-0.056007,-0.11155,0.118512,-0.058119,0.153268,0.175945,-0.083409,0.025273,0.053915,-0.023245,0.226396,-0.005271,-0.164932,-0.092831,-0.123418,0.050196,0.122832,-0.032094,0.057199,0.111168,-0.003808,-0.009693,0.067672,-0.224511,-0.147945,0.030018,-0.107784,0.107027,0.037888,0.182427,-0.035148,0.127019,0.105434,-0.009839,0.040578,-0.164132,0.052664,0.199977,0.067881,-0.000816,-0.04119,0.130679,-0.020966,-0.060485,0.12334,0.042498,0.121185,-0.019421,0.052231,-0.051578,0.101497,0.126333,-0.045527,0.113661,-0.012901,0.14541,-0.160222,0.13441,0.054264,0.086787,-0.044865,0.155191,0.056083,0.183232,-0.2827,-0.095267,0.003249,0.14601,-0.040428,0.061797,-0.010905,0.148509,-0.069123,0.089005,0.11322,-0.007228,0.115539,-0.142302,0.170723,0.169236,-0.112348,-0.089907,-0.034588,0.012072,-0.008021,-0.066728,-0.123991,0.125209,0.126926,-0.108859,0.009573,-0.09824,0.04835,-0.129461,-0.058598,-0.162257,0.189333,-0.012235,0.140378,-0.026114,-0.132204,0.03325,-0.005442,-0.025986,-0.136463,0.006835,-0.024751,-0.087947,-0.084432,-0.263442,0.14182,-0.054611,0.022538,0.091701,0.16991,0.084276,-0.018113,0.064346,-0.030934,0.119547,-0.040861,-0.12161,0.078055,0.285416,0.091375,0.017753,-0.056142,0.050694,-0.024055,0.044711,-0.078568,-0.026152,0.259269,-0.043277,0.043763,0.0077,0.007948,-0.003468,0.007206,-0.003945,-0.075568,0.039906,0.115333,0.079356,0.087961,-0.006403,0.240349,-0.174796,0.050561,0.011907,-0.214453,-0.071086,0.001379,-0.113596,-0.013907,0.101037,-0.008731,-0.058338,-0.022168,-0.022361,0.134049,0.020831,0.029441,-0.123334,0.187024,0.09761,0.014885,0.058339,0.094815,-0.101557,0.056598,-0.007617,-0.17066,0.208704,-0.081487,0.01865,-0.062008,-0.019662,-0.068378,-0.225152,0.117638,-0.164007,-0.030219,0.018652,0.043408,-0.150077,-0.093693,0.018021,0.027629,-0.300792,-0.051033,0.084604,0.047345,-0.01146,-0.034304,0.072379,0.034693,-0.108993,0.24027,-0.055565,0.002304
money,0.020714,-0.063915,0.23472,-0.061898,-0.376365,0.127613,0.012512,-0.183552,-0.095987,0.121028,-0.053012,-0.13432,-0.186363,0.181258,0.189421,0.077091,-0.238421,-0.039964,-0.088232,0.018393,-0.152372,0.061051,0.269899,0.123675,0.290228,-0.02618,-0.050879,-0.240554,0.078905,-0.210305,0.025995,-0.115337,-0.111916,0.09629,0.018518,-0.016472,-0.097514,-0.281934,-0.088203,0.088429,0.088352,-0.019015,-0.127032,0.005329,-0.140258,-0.096922,0.041519,0.26518,-0.063876,0.062007,0.020856,-0.098643,0.038829,-0.10303,-0.001371,0.111075,0.046355,-0.019243,-0.031244,-0.028448,-0.104228,-0.219396,0.004104,0.074915,-0.065753,-0.013548,-0.010483,-0.156853,0.155332,-0.110393,-0.217444,0.012716,0.184413,-0.086509,0.13281,-0.136463,0.006214,0.006195,0.025756,0.117218,-0.149457,0.048233,-0.059918,-0.060823,0.025226,-0.109275,0.097209,-0.16522,0.144231,0.103287,-0.131694,-0.017248,-0.056849,0.332111,0.014992,0.126368,-0.039038,0.112262,0.02856,-0.131368,0.155247,0.024507,-0.161813,0.134405,-0.014089,-0.299626,-0.08077,-0.13886,-0.150542,0.148827,-0.118104,-0.016357,-0.186661,-0.042747,0.035331,-0.090539,0.100207,0.123839,-0.000529,0.046423,0.152279,0.029148,-0.242312,-0.210621,0.006547,-0.163027,0.023835,0.074064,-0.047069,0.141717,0.035943,0.035972,-0.154719,-0.131295,-0.253597,0.211546,-0.137938,-0.010076,0.059524,-0.044035,-0.10635,0.024043,0.135746,0.002368,0.295487,0.048669,0.084811,0.115085,0.166946,0.194215,0.349525,-0.016272,0.055562,0.147513,0.201069,-0.218166,0.010255,-0.19671,0.018126,-0.021669,-0.014852,0.077339,0.211947,-0.45572,-0.085606,0.09612,0.123746,0.128108,0.109887,0.144693,-0.039553,-0.205622,-0.033856,-0.011113,-0.040812,-0.069246,-0.125536,0.038574,0.075831,-0.041499,-0.020093,-0.040699,0.031799,0.118308,0.101732,-0.080404,0.050141,0.144037,0.042268,-0.006192,0.030049,0.064873,-0.151054,-0.052023,-0.084171,0.125055,0.144795,0.02315,-0.07297,-0.123574,0.250881,-0.031423,0.025368,-0.087625,0.184953,-0.044111,0.103521,-0.045026,0.0629,-0.030395,0.026689,0.147637,-0.033654,0.08882,-0.126751,-0.086516,-0.020707,-0.00039,-0.017673,-0.303897,0.008343,-0.197483,0.129505,0.049299,0.023767,-0.041013,0.05754,-0.141528,-0.061338,-0.120155,-0.039347,0.041822,-0.004389,-0.006146,-0.006576,0.151505,0.006502,-0.125149,-0.012067,0.08953,0.185302,0.217204,0.129835,-0.041085,-0.01256,0.138961,-0.022808,0.267135,0.019146,-0.054919,-0.139621,0.208645,-0.184122,0.011717,0.031501,0.125029,0.10019,0.041284,0.040524,0.00876,0.149281,-0.042651,-0.247944,0.000543,0.254572,-0.161534,0.110816,-0.065238,-0.182238,0.014617,0.064285,-0.03923,0.051876,0.082458,-0.01987,-0.112511,0.032441,-0.045809,-0.242667,-0.234594,-0.253419,-0.015373,-0.015332,-0.035514,-0.029727,-0.083021,-0.027246,-0.191854,-0.143663,-0.018072,0.015483,-0.014018,0.166524,-0.15327,-0.071641,-0.193083,-0.065979,0.048867,0.11897,0.053393
keep,-0.007066,0.166275,0.15497,-0.174056,-0.086153,0.019216,0.066515,-0.035766,-0.025788,0.062358,0.036497,-0.217674,-0.202786,-0.040499,0.071664,0.055017,0.038237,-0.003782,-0.134525,0.102108,-0.183548,-0.010998,-0.039998,0.15543,0.142616,0.123036,-0.100078,0.046242,-0.036832,-0.093933,-0.157866,-0.114597,-0.059909,0.046726,0.029734,0.114889,-0.014352,-0.096303,-0.005687,0.025429,0.02173,0.184805,-0.166048,-0.01284,0.133183,-0.149769,0.013907,0.169474,0.128137,-0.002708,0.02454,-0.023471,0.057724,-0.025981,-0.079578,0.033989,-0.067574,0.071645,-0.236575,0.189335,0.057232,-0.216194,-0.320987,0.0368,-0.091037,-0.018359,0.056547,-0.004614,0.176837,-0.101191,-0.200937,0.023541,0.158338,0.132152,0.190211,0.180327,0.050174,0.095215,-0.028024,-0.003701,0.170501,0.047205,0.109483,-0.155334,-0.13302,-0.269884,0.133989,-0.165347,0.194461,-0.115115,-0.083623,-0.087967,-0.111386,0.092635,-0.083528,0.029155,-0.169861,-0.077053,0.135173,0.11027,-0.124265,-0.008687,-0.032951,-0.078905,0.258251,-0.031881,-0.254205,0.135019,0.02535,0.028,-0.049176,-0.22887,0.002724,-0.043628,-0.024801,-0.028785,-0.051092,0.056686,-0.036191,-0.120699,-0.121196,0.26761,-0.096819,-0.283206,0.03103,-0.033496,0.15793,0.102467,0.035069,0.151053,0.140658,0.167924,-0.184266,0.189225,-0.162426,0.118477,0.189959,0.030611,-0.060134,0.080952,0.076958,0.016651,0.022099,0.080142,0.319137,0.282623,0.040751,-0.114965,0.262726,-0.058627,-0.082447,0.047656,0.155504,0.076174,-0.026707,-0.221948,-0.06786,0.054319,-0.005906,-0.097567,0.111812,0.04697,0.003639,-0.189312,-0.05607,-0.093228,0.165084,-0.006194,0.114188,-0.212522,-0.117745,-0.149426,0.089121,-0.157684,-0.061903,0.025561,-0.023378,0.118511,0.019958,-0.040362,0.017095,-0.04601,-0.175285,0.039046,0.095514,0.074029,-0.244668,0.125815,-0.106904,-0.019071,0.081417,0.083506,-0.02608,-0.205546,0.10693,0.138331,0.166198,0.163826,-0.062847,-0.198803,0.090091,0.051999,0.155164,-0.010057,0.061605,-0.098019,0.008298,-0.199517,0.07482,0.299521,0.134305,-0.018643,0.315431,-0.02687,-0.063166,-0.000819,0.00039,0.045858,0.008125,-0.134045,-0.09886,0.128826,0.11205,0.212701,0.174941,-0.050144,0.143151,-0.023161,0.163412,-0.059055,-0.018122,-0.085237,-0.139236,0.110336,0.184754,-0.038107,0.168796,-0.207294,-0.001376,0.025481,-0.168608,0.067282,0.085425,-0.21893,0.013553,-0.020523,-0.040392,0.083002,0.117725,-0.020701,0.190663,0.052928,-0.055105,0.116879,-0.020716,-0.014182,0.001449,-0.049246,0.03222,-0.012815,0.002297,-0.13915,-0.120188,0.144391,0.160749,-0.016046,-0.015465,-0.036821,0.02654,-0.077701,-0.027503,-0.072002,0.076512,-0.039033,-0.112433,-0.05516,-0.199748,0.029097,-0.149943,-0.04248,-0.169468,0.131709,-0.059625,0.048787,-0.04237,0.093266,0.159687,-0.286843,-0.112652,0.009246,-0.100013,0.159884,0.031766,0.082787,0.049274,-0.080908,0.021777,0.388424,0.020986,-0.128254
thought,0.079134,-0.082202,0.148349,-0.054421,-0.048703,-0.065896,0.015953,-0.039369,0.057553,0.008769,0.064293,-0.009611,-0.104919,0.038782,0.041864,-0.078536,0.12822,-0.023894,0.040724,0.084382,-0.221203,-0.037253,0.106272,0.015731,0.119066,0.096437,0.216929,-0.065776,0.123493,-0.09333,-0.155852,0.035164,0.07291,-0.091615,-0.093722,0.077431,-0.045344,-0.069318,0.163248,-0.01423,-0.192271,0.050461,-0.041703,-0.015269,-0.019027,-0.112911,-0.086897,0.045816,0.023716,0.116325,0.070658,-0.040613,-0.112992,-0.158538,0.073881,-0.096005,-0.087096,-0.072291,0.043233,0.187575,0.086737,-0.081659,0.042625,-0.184304,0.045468,-0.016445,0.157815,-0.022016,0.11679,-0.044564,-0.107339,0.014502,0.083632,-0.004181,0.007826,-0.016614,0.017499,-0.107479,0.012232,0.014708,-0.026459,0.03553,0.122453,-0.013923,-0.175304,-0.156142,0.043904,-0.15071,0.077977,0.015692,-0.105341,-0.19666,0.067518,0.162078,0.018602,0.148704,-0.022206,0.028669,0.034639,-0.040033,-0.029342,0.027528,0.075469,0.062309,0.122682,-0.118434,-0.057663,-0.017381,-0.006659,-0.030017,0.009394,0.004291,-0.149345,0.009713,0.034168,-0.005537,-0.108581,-0.068072,-0.017092,0.190059,-0.048893,-0.009657,-0.150005,-0.01881,0.028961,0.133849,0.143518,0.032722,0.104579,0.020806,0.142606,0.141789,-0.095183,-0.075162,-0.112305,0.06713,0.068286,-0.021257,0.010398,-0.03598,0.026317,-0.066416,0.162313,-0.002381,0.055173,0.090995,0.120261,0.087828,0.096628,0.132975,0.21103,-0.044755,0.085618,0.072857,0.044438,-0.135183,-0.123257,-0.072705,-0.015056,-0.122131,0.111312,0.122918,0.02574,-0.092604,0.055493,-0.017008,0.121628,-0.030789,0.113462,0.033099,0.000398,-0.084936,0.043487,0.031939,0.077078,-0.031595,-0.120128,0.249503,0.039544,0.006436,0.032842,-0.038849,-0.080748,0.103132,-0.089918,-0.10234,0.040245,0.060475,0.031725,0.061016,0.18977,0.028864,-0.176452,-0.021861,-0.054483,0.043037,-0.101342,0.026809,-0.17022,-0.092083,0.12074,0.016598,-0.0581,0.001453,-0.057306,0.038029,0.022213,-0.212015,-0.025685,0.168207,-0.058946,-0.040621,0.030103,0.073187,0.016837,-0.036465,-0.051546,-0.127058,-0.156358,-0.046876,-0.116204,-0.00447,0.116651,0.192285,0.216714,-0.125568,0.07615,-0.054597,0.046414,-0.026049,-0.104682,0.139778,-0.195148,0.11177,0.026418,-0.002935,0.052578,-0.167439,0.052807,0.118939,0.053199,0.177819,0.144446,0.118507,0.066642,-0.103987,-0.206863,0.113174,0.082698,-0.095864,-0.175454,0.075704,-0.124968,-0.093577,0.016823,-0.140104,0.098725,-0.038535,0.029297,-0.014198,0.022534,-0.095186,0.065898,0.06748,0.100619,-0.010015,-0.034671,-0.093809,-0.020604,0.096291,4.9e-05,-0.058552,-0.082279,-0.019179,-0.055454,0.077959,-0.084448,-0.061947,0.023531,0.011255,-0.121989,0.155574,0.044565,0.076849,-0.094297,0.002091,0.001295,-0.018113,0.011058,-0.009295,0.089526,0.029575,0.069326,0.143108,-0.111649,-0.199705,-0.059797,0.14011,-0.025819,0.039684
car,0.14199,-0.012683,0.128364,-0.014562,0.186524,-0.152296,0.11904,-0.110394,0.049362,0.024578,-0.102942,-0.099367,0.015244,0.043724,0.172887,-0.07642,-0.208213,-0.034345,-0.159754,-0.00706,-0.05795,0.19513,0.186725,-0.086889,0.086772,0.122906,-0.074283,-0.047033,0.137132,-0.180743,-0.049058,-0.090251,-0.175542,0.363728,-0.156869,0.18387,-0.130881,-0.069383,-0.112072,-0.19735,0.06803,0.033354,-0.08464,0.193852,0.148585,-0.256181,0.10707,0.099924,0.032256,-0.038365,-0.024971,-0.119573,-0.051473,-0.103152,-0.025391,-0.109337,0.013889,-0.163328,0.137223,0.161426,0.046652,-0.027606,-0.095793,-0.177272,0.02171,0.068287,0.209428,-0.139172,0.044665,0.092998,-0.10224,-0.039851,0.018136,-0.165831,0.269546,0.014907,-0.078991,-0.13414,0.162978,0.018003,-0.222699,0.010557,0.042055,0.0508,-0.101284,-0.196633,0.130346,-0.26452,0.263874,0.015916,-0.129772,-0.023145,-0.236842,0.268403,0.231491,0.078713,0.134254,0.068348,-0.129122,0.059514,0.063359,0.168603,-0.153999,0.027349,0.243337,-0.03435,-0.13561,-0.02189,-0.041758,-0.062862,-0.029637,-0.055418,0.003373,0.147802,0.066795,-0.067956,0.033333,-0.083797,-0.077492,-0.087012,0.028653,0.011013,-0.113287,-0.040871,0.144503,-0.142328,0.234868,0.041541,-0.125079,0.003946,0.218585,0.086647,-0.117833,-0.104254,-0.164147,0.107221,0.093173,0.094582,-0.09879,-0.106147,-0.260351,0.116977,0.106957,-0.105652,0.246747,0.013741,0.071394,0.210152,0.301401,0.145792,0.026097,-0.215504,0.060228,0.054376,0.151585,-0.252159,-0.065864,-0.059629,0.041715,-0.074944,0.15932,-0.156814,0.247395,-0.185352,-0.087058,-0.034898,0.193012,-0.059363,0.325684,0.099527,0.141587,-0.166354,0.119408,0.045514,-0.229177,0.000884,0.194982,-0.07235,0.047536,-0.036053,0.137185,0.160937,-0.018189,0.175339,0.036866,-0.209288,0.104163,-0.047081,0.131651,-0.200072,0.019452,0.044714,-0.195382,-0.24755,-0.337932,0.067311,-0.054435,0.178478,-0.241001,-0.114473,0.024292,0.177504,-0.185233,-0.158377,0.043363,-0.027853,-0.019546,-0.04815,-0.169582,0.122067,-0.022074,0.20383,0.020296,0.030909,0.172804,0.020364,0.093054,-0.010164,-0.035408,-0.141977,-0.253605,-0.039929,0.149153,0.041594,0.215959,-0.084439,-0.054948,0.13062,0.108471,-0.140372,-0.084583,0.294218,-0.114153,0.193348,-0.101653,0.126186,0.164813,-0.01577,-0.14545,0.128694,0.013785,0.0509,0.040033,0.015771,0.147834,0.178121,0.10874,0.121297,0.015827,0.120783,-0.154307,0.114308,-0.081956,-0.085383,0.01819,-0.078814,-0.004779,-0.086978,-0.17386,0.129014,0.071713,-0.089891,-0.054786,0.057816,0.15062,0.205316,0.24813,0.00597,0.106659,0.088466,-0.05126,0.062057,-0.024147,-0.195646,0.183827,0.079529,0.092066,-0.048545,-0.233079,0.055384,0.030726,-0.018289,-0.079922,0.116963,0.034634,0.056124,0.147852,0.078891,0.100428,-0.149066,-0.233985,0.268693,0.262452,0.135276,-0.182151,0.029335,-0.154743,0.084948,-0.015312,-0.010045
four,-0.164682,-0.072454,0.100576,-0.143984,0.170996,0.065468,0.068249,-0.008805,0.005215,0.017152,0.103768,-0.306636,-0.002809,0.080738,-0.089002,0.228125,-0.145818,0.015335,-0.250526,-0.128427,-0.306855,0.224423,0.019045,-0.03847,0.184433,0.080892,0.046051,0.013064,0.120638,-0.071017,0.124862,-0.081136,-0.042981,-0.035511,0.245784,0.082235,-0.091261,-0.048196,-0.053822,-0.150482,0.052288,0.071536,0.206123,0.114189,0.185107,-0.101706,-0.018852,-0.060001,0.155983,-0.017544,0.001387,-0.04697,-0.025139,0.13784,-0.000769,-0.087777,0.143596,0.010671,-0.007577,0.196145,0.017356,-0.157863,-0.036268,-0.107337,-0.013398,0.015582,-0.042664,-0.191787,0.024341,0.163857,-0.257568,-0.082072,-0.009568,-0.025619,0.068216,-0.02762,0.120352,-0.074349,-0.055646,-0.003811,0.074001,0.083208,-0.008617,-0.082921,-0.072293,-0.20603,0.034025,-0.318672,0.177661,0.133547,0.114604,-0.138558,-0.225273,-0.008463,-0.014755,0.106862,-0.057468,0.172938,-0.053944,0.075992,-0.088816,0.050125,0.031763,0.13842,0.084592,-0.064114,0.117651,-0.115988,-0.15635,-0.089663,0.050644,-0.020148,0.046367,-0.039841,0.134233,-0.036009,0.044553,0.016492,0.19671,-0.041373,0.098758,0.154069,0.160754,-0.055301,-0.017218,0.080715,0.091595,0.147372,0.218985,0.250628,-0.00359,0.240281,-0.125395,0.12464,-0.038903,0.125236,-0.097487,0.216035,0.027373,-0.129184,-0.060903,0.096632,-0.025354,0.108158,0.197192,-0.088976,0.077559,0.10109,0.063704,0.30454,0.0319,-0.230833,-0.041099,0.058925,0.21241,-0.113596,-0.014324,-0.044125,-0.00706,0.057938,0.22472,0.048062,0.097128,-0.248974,0.045014,-0.079278,-0.17658,-0.077284,-0.039107,-0.164114,-0.175451,-0.01821,-0.016768,-0.101636,0.022033,-0.086564,0.006348,0.115403,0.15664,-0.058769,0.154473,0.044425,0.008793,0.087565,-0.169817,0.042741,0.16212,0.035072,-0.038653,-0.086312,-0.153196,0.060844,-0.071045,-0.077728,0.077175,0.117496,-0.003083,-0.185214,-0.027948,-0.041078,0.073451,0.090319,-0.112168,-0.020499,0.090836,0.069068,-0.137191,0.118049,0.061991,0.044254,-0.029041,-0.115558,0.127735,0.083469,0.117722,0.083005,-0.001382,-0.199361,0.0713,0.197913,-0.094824,0.055743,0.123113,-0.002895,0.102991,-0.027223,0.133465,0.086768,-0.154025,0.144536,0.02415,0.040181,-0.169281,0.126319,0.008547,-0.096311,0.053104,0.048333,0.095271,-0.096809,0.058158,0.072852,0.004705,0.096196,0.14081,-0.327139,-0.042065,0.258506,0.080517,-0.074119,-0.091566,-0.013661,-0.087176,0.024317,0.189958,0.167371,-0.155314,0.086079,-0.1016,-0.06719,0.080038,0.196345,0.008871,-0.005587,-0.078455,-0.165298,-0.102414,-0.019006,-0.191059,-0.119367,-0.086766,-0.138159,0.099919,-0.267944,-0.061589,0.070956,-0.021474,0.064087,0.071466,0.208343,-0.095068,-0.042319,0.165215,-0.026151,-0.018011,0.20468,-0.033535,0.179426,-0.208242,0.04091,-0.108757,0.189943,-0.010092,-0.025553,-0.113538,-0.106853,0.11731,0.05641,-0.147418,-0.003201
play,-0.15862,-0.154314,0.121236,-0.037765,-0.109125,-0.039512,-0.162624,0.031298,-0.081054,0.186576,0.016511,-0.126454,0.151709,-0.126767,0.068511,-0.080739,-0.037633,-0.055991,-0.019421,-0.170588,-0.173118,0.210114,0.04856,0.241684,0.211316,0.244747,0.118982,-0.064671,-0.05981,-0.133268,-0.040991,-0.114492,-0.179927,0.153711,-0.071217,0.35842,-0.233483,0.166953,0.061593,-0.160787,-0.016611,0.056899,-0.155538,-0.239639,0.044692,-0.106928,-0.137776,-3.4e-05,-0.039126,-0.030416,0.085304,0.156009,-0.117526,-0.045781,-0.087986,0.010231,-0.165344,0.126305,-0.104266,0.048103,-0.086139,-0.078244,0.033636,-0.268749,0.058225,-0.143543,0.22781,-0.217756,0.039558,-0.110234,-0.200253,0.034646,0.025287,0.03437,0.057397,-0.012901,0.161098,0.27586,0.039532,0.26015,0.09528,0.112404,-0.00909,-0.108135,-0.177673,-0.129587,-0.135191,-0.170051,0.136272,0.011491,-0.199316,-0.042476,-0.086241,0.028452,-0.060402,0.206104,-0.281537,-0.089903,-0.162033,0.082258,-0.211498,0.118214,-0.095989,0.146512,0.321914,-0.145443,-0.148233,0.020447,0.017143,0.235619,-0.132812,0.066511,0.091856,-0.082605,0.134205,0.130068,-0.053324,-0.054506,0.263493,0.046607,-0.069607,0.116381,0.094738,-0.080226,0.123325,0.045043,0.292715,0.0064,0.098734,0.048918,-0.034521,0.017722,-0.018807,0.021775,-0.121195,0.028163,0.007959,-0.011116,0.127825,-0.21565,-0.026786,0.062555,0.137807,-0.167685,0.135029,0.0378,0.229777,0.017678,0.173186,-0.097697,0.017779,-0.217315,0.130716,0.109969,0.145303,-0.124377,0.057009,-0.097888,0.173865,0.163807,-0.136265,0.089342,0.014621,-0.146138,-0.02018,0.215994,0.134088,0.087548,0.042588,0.037319,-0.060103,-0.133559,-0.169563,-0.148186,0.172118,0.169735,-0.034797,0.088014,-0.07055,0.0612,-0.033375,-0.037056,0.085957,0.130923,-0.114598,-0.105357,0.024203,0.092765,-0.083923,-0.119107,0.094859,0.281869,0.017038,-0.004394,0.043225,0.20364,0.122301,0.218287,-0.122859,-0.065313,0.155431,0.055751,0.098425,0.032945,-0.027569,-0.044583,0.030371,0.031371,-0.114084,-0.2901,0.060654,-0.111115,0.191936,0.020817,-0.181052,0.100799,-0.08586,0.130874,-0.076496,0.063976,0.088672,-0.181196,0.347124,0.175919,0.081303,-0.144895,-0.026108,0.090927,0.101602,-0.004751,0.045928,0.025626,-0.027964,0.037493,0.006804,-0.147667,-0.131705,0.124942,0.16974,-0.009569,0.006564,0.145426,0.478494,0.025147,-0.071686,-0.082409,-0.164592,0.148554,-0.110558,-0.332411,-0.157108,-0.077651,-0.108008,0.086341,0.312267,0.037847,-0.004558,-0.100729,0.018775,-0.042399,-0.142214,0.032489,0.112309,0.16891,0.138481,0.001449,0.139206,0.194458,-0.123971,-0.13042,-0.037925,-0.176974,-0.063658,-0.140099,-0.030858,-0.093056,0.054688,0.051539,-0.048186,0.076717,-0.003958,0.060956,0.076038,0.066198,-0.030652,-0.006924,0.166232,-0.056614,-0.20901,-0.053176,0.003442,0.139305,-0.030432,0.061732,-0.072498,-0.193918,0.109899,-0.004835,0.042417,0.072795
country,-0.122183,-0.137566,0.194189,-0.023277,0.001893,-0.016716,0.014287,-0.157022,-0.113071,0.074357,0.032996,0.123447,-0.247913,-0.025074,0.07753,0.103928,-0.228922,0.130913,-0.227309,-0.21203,-0.042766,-0.011122,0.145663,0.069081,0.182287,-0.048439,-0.143833,-0.009585,-0.148529,-0.011278,0.025862,-0.200078,-0.077547,-0.037398,-0.108166,0.039656,-0.07808,0.069042,0.012418,-0.069908,-0.136451,-0.065176,0.057079,-0.035058,-0.013438,-0.128779,-0.015023,-0.143986,0.051366,-0.069133,0.142014,-0.053254,-0.024492,0.005834,-0.084431,-0.16284,-0.063915,-0.0637,0.190032,-0.071271,0.023967,-0.2882,-0.051705,-0.03695,0.030796,0.117882,0.123281,-0.007656,0.270686,-0.022625,0.109365,-0.024005,0.006567,-0.03338,0.091988,0.169329,0.035276,-0.083512,0.079386,0.016362,-0.082638,0.20939,0.023607,0.023418,-0.087844,-0.141424,-0.063252,-0.137008,0.222304,-0.15718,0.017063,-0.096627,0.070804,0.138832,-0.057528,0.033729,-0.266167,-0.11018,-0.021656,-0.034344,-0.13339,0.033945,-0.057277,-0.076088,0.068818,-0.201505,0.098698,0.101493,-0.031487,-0.076277,0.027519,-0.076166,-0.024806,-0.104967,0.003175,-0.052457,-0.117867,-0.063184,0.114051,0.282044,0.247189,-0.116326,-0.191211,-0.017385,-0.057008,-0.131314,0.048368,-0.075821,-0.061104,0.070936,0.024726,-0.1201,-0.14474,0.045329,0.046121,0.0637,-0.023971,-0.114201,-0.015498,-0.025868,0.069025,0.016962,0.068067,-0.013796,0.078101,0.106466,0.032238,0.105603,0.116702,0.029014,-0.012794,-0.243094,0.190772,0.072512,0.046609,-0.1336,-0.056976,-0.071129,-0.008519,0.103201,0.063193,0.101926,0.073442,-0.149641,-0.093385,0.182084,0.174376,0.084183,0.197455,-0.024767,0.016156,0.058207,0.060361,0.055582,0.06428,-0.147194,-0.157329,-0.031368,0.084019,-0.026326,0.200157,0.146487,0.102836,0.070697,-0.049379,0.014234,0.082417,0.048244,0.028705,0.037006,0.161419,-0.147216,-0.209664,0.132845,-0.082389,-0.036869,0.046439,0.11079,-0.020493,-0.092174,-0.044755,-0.115117,0.00929,-0.215824,0.145419,0.081237,0.032137,0.119278,-0.118178,-0.024181,0.239617,-0.020294,0.160242,0.104901,-0.038303,0.06253,-0.07539,0.019018,-0.011676,-0.095876,0.044972,-0.084356,-0.021047,0.012001,0.134222,-0.11383,0.12367,-0.069775,-0.040399,-0.050764,-0.016942,-0.018691,0.167059,0.011554,0.022335,0.081965,0.04876,0.220563,-0.065854,0.084864,0.110088,0.054432,0.115537,0.111212,-0.014976,-0.031271,-0.06683,-0.004466,0.111574,-0.02282,0.129569,-0.129609,-0.095839,-0.122962,0.012977,0.006261,-0.197827,-0.04023,0.051721,-0.04041,0.186367,-0.007147,-0.235737,0.17646,0.187211,-0.046681,0.203877,-0.224083,-0.047356,0.025409,0.087528,0.009489,0.207102,0.065811,-0.054992,-0.026084,0.134107,0.044805,-0.077417,0.104351,-0.134972,0.04072,0.047012,0.023013,0.069084,0.109689,0.078347,-0.016192,0.145359,-0.188233,0.147879,0.171939,-0.122859,0.000846,0.168204,-0.094442,0.067058,0.031,0.071414,0.019296
food,-0.101692,-0.08675,0.123604,-0.171616,-0.248481,0.075942,0.162437,-0.110402,-0.075563,0.003634,-0.197452,-0.181662,-0.148914,0.024344,0.240052,0.278638,0.149484,0.098001,0.069242,0.085463,-0.267293,-0.059224,-0.004819,-0.057398,0.262312,0.058714,0.001545,0.089169,0.174256,0.012448,-0.155604,-0.155928,-0.113187,-0.013906,0.031741,0.194277,0.003455,-0.305407,0.010568,-0.086787,-0.018485,-0.08716,-0.105015,0.118355,-0.041003,-0.040464,-0.125523,0.195699,0.199615,-0.319975,0.136889,0.120351,0.013316,-0.025169,-0.288472,-0.100353,-0.194795,0.066862,-0.006101,-0.002418,-0.071596,-0.003728,0.026729,0.094384,0.206054,-0.012907,0.057221,-0.134595,0.148419,0.149971,0.009956,0.09321,0.099391,0.181933,0.062447,0.049983,-0.050304,-0.123995,-0.049029,0.036006,-0.152982,0.293466,0.109581,0.073001,-0.13879,-0.022153,0.045785,-0.167339,0.141728,0.023144,0.181613,-0.062314,0.053034,0.233406,-0.14131,0.143108,0.084517,0.019759,0.266896,0.109059,-0.083205,-0.020012,-0.205545,0.010645,0.126783,-0.209856,-0.086821,-0.217067,-0.209394,0.004995,-0.035993,-0.226466,-0.132527,-0.131305,-0.079598,0.107353,0.001563,0.071251,0.22416,-0.010449,0.116415,-0.207148,-0.242251,0.10321,0.112384,0.146094,-0.036185,0.147388,0.21149,-0.090002,0.07082,0.176308,-0.182991,0.19409,-0.01838,-0.100816,0.002659,0.098182,0.184404,-0.022867,0.012753,-0.079202,0.079388,-0.185656,0.193658,0.163874,-0.094363,0.239905,-0.054469,0.090601,0.109525,-0.10055,0.31679,0.067231,0.245061,0.130436,-0.014607,0.136019,0.164071,-0.086679,0.019928,-0.020044,0.099914,-0.431251,-0.123385,-0.021402,-0.072812,-0.1075,0.207855,-0.082786,0.002445,-0.083307,-0.104904,-0.037556,0.060784,-0.063034,-0.108324,0.040368,0.11045,-0.103384,0.177479,0.122676,0.090355,0.29458,0.071675,-0.039173,-0.043847,0.027277,0.047149,-0.042815,-0.038034,0.039229,0.088026,-0.06,-0.074678,0.093686,-0.020944,0.151319,0.165636,-0.122972,0.114709,0.086049,-0.182934,-0.090319,-0.030845,0.272855,0.146087,-0.06034,0.03188,-0.156436,0.111062,0.172668,-0.047208,-0.076229,0.220641,0.124268,0.006753,0.091758,-0.149209,-0.137021,0.023536,0.215429,-0.116666,0.263418,0.085414,0.241084,0.031463,0.14962,-0.055448,0.007696,-0.115789,0.063164,-0.077062,0.057515,0.016284,-0.12552,0.026105,-0.221945,-0.046252,0.078001,0.069216,0.006228,0.087859,0.003651,-0.010401,-0.011917,-0.125243,-0.018233,-0.045715,-0.121581,-0.000584,0.173513,0.111502,-0.172878,-0.052596,0.328936,-0.078314,0.021342,0.156476,-0.065474,-0.098587,0.122022,-0.362052,0.024133,0.102004,0.019187,-0.07067,0.024427,-0.008964,-0.218126,-0.08616,-0.107568,0.011946,0.038311,0.166355,0.052998,0.07814,0.008972,-0.157325,0.062036,-0.110518,0.024672,0.035218,0.049428,-0.274842,-0.133459,-0.042276,0.077888,0.024613,-0.240485,0.136067,0.037667,0.00902,-0.055309,0.022149,-0.147345,0.009457,-0.017535,0.031871,0.091013
building,0.024774,-0.117236,0.023967,-0.047319,0.165005,0.08746,0.172204,-0.173904,0.042941,-0.053724,0.011574,0.029066,-0.094761,-0.133167,0.04831,-0.07973,-0.028509,-0.140366,-0.151323,-0.002339,-0.091106,0.202814,0.306199,0.153791,-0.033528,-0.141724,0.101604,-0.143169,0.18385,-0.120273,-0.19098,0.029198,2.9e-05,-0.20418,0.178983,0.120107,-0.021344,-0.157227,0.001934,0.030647,0.021829,0.137713,0.206113,-0.15199,0.260108,-0.173684,0.082866,-0.030456,0.065596,0.065963,0.09544,0.128616,0.075737,0.07405,-0.069928,-0.170298,0.018256,-0.101191,-0.037428,0.019595,-0.09787,-0.095244,-0.183303,-0.111277,0.045263,-0.018056,0.088878,-0.030812,-0.010067,-0.09415,0.062775,-0.056388,0.0899,-0.242441,0.233201,-0.015166,-0.047019,0.095394,0.055048,-0.169011,0.038253,-0.066125,0.111062,-0.140553,-0.088281,-0.104537,-0.002503,-0.095282,0.21985,0.072173,-0.039997,-0.096638,-0.129974,0.152774,0.051576,-0.197757,-0.165307,0.068079,0.007294,0.067576,0.011095,-0.083168,-0.170062,0.029647,0.046896,-0.121781,0.026761,0.120198,-0.177946,-0.185537,-0.05581,0.000149,-0.12805,-0.195252,0.085327,-0.101505,-0.01522,-0.108434,-0.148657,-0.018205,0.139703,-0.100285,-0.273847,-0.18877,0.163551,-0.151898,0.088139,0.087351,0.027138,-0.019863,-0.102212,0.050383,-0.224592,0.080398,-0.16189,-0.111302,-0.159395,-0.01667,-0.042146,0.105992,-0.069244,0.081082,0.05395,0.00981,0.246396,-0.030498,-0.004242,0.20946,0.025475,0.318461,-0.214757,0.106565,-0.331783,-0.009704,0.097628,-0.172689,-0.060699,0.005818,-0.206019,-0.115081,0.083169,-0.095076,0.030675,-0.106668,0.010158,-0.077448,-0.058271,0.097012,0.02565,-0.254354,0.117364,-0.300941,0.143967,-0.236468,0.118713,-0.117555,-0.1117,0.025649,0.063892,-0.062911,-0.068135,0.044613,-0.160401,0.300904,-0.094894,-0.131601,0.003298,-0.058095,0.072594,-0.07081,0.180145,-0.075959,0.009963,-0.153412,0.063369,0.179865,-0.192032,0.188192,0.138274,0.077971,-0.156079,-0.153769,-0.060734,-0.102697,-0.110569,0.04967,-0.007345,-0.024671,0.0433,0.023945,0.084055,0.047977,-0.052212,0.189923,0.023453,-0.075582,0.059762,-0.123401,0.039044,0.018257,0.027179,-0.166212,0.050886,-0.128921,0.142918,-0.093484,0.123584,0.06725,-0.097153,0.034572,-0.056246,0.257219,0.076941,0.058514,-0.012468,-0.043291,-0.004077,0.092044,-0.084867,0.344522,0.206649,0.01315,0.300403,-0.080031,-0.00355,0.130516,-0.020365,-0.051916,0.136617,0.071455,-0.087317,0.039787,-0.025611,0.000387,-0.153213,-0.007292,-0.070952,-0.067729,-0.014154,0.072076,0.008094,-0.214055,-0.223475,-0.10003,0.140914,-0.034197,0.046541,-0.154705,0.058205,0.068026,0.003218,0.024233,0.10637,-0.062934,-0.032532,0.038676,-0.013382,0.044567,0.051787,0.101258,-0.251112,-0.108476,-0.191209,-0.098097,0.072037,-0.01247,-0.145789,0.167244,-0.206083,0.083447,0.005059,0.229121,0.012858,0.21994,-0.125872,-0.025939,-0.122524,-0.023913,0.073757,0.186594
stop,-0.006272,-0.059298,0.166769,-0.103942,-0.135031,-0.054838,-0.027887,-0.103437,-0.111869,0.073891,0.040248,-0.035137,-0.096641,-0.039049,0.148142,0.008824,0.085696,-0.002398,-0.05336,0.053827,-0.223877,0.15249,-0.006646,0.080983,0.34484,-0.052788,-0.168426,-0.089863,-0.191829,0.019415,-0.06904,-0.173995,0.005853,0.050675,-0.052233,0.084688,-0.011007,-0.262765,-0.153993,-0.122174,0.01163,0.046684,-0.037229,0.044018,-0.026133,-0.081612,-0.076893,0.113215,-0.035705,-0.021616,-0.022181,-0.175984,0.097919,-0.238502,-0.094947,0.05631,0.01533,-0.088644,-0.081622,0.160021,0.015592,-0.046358,-0.220667,-0.202596,0.168547,0.065829,0.23021,-0.124535,-0.030565,-0.010752,-0.079595,-0.157415,0.077911,0.049933,0.160286,0.036617,0.080046,-0.009913,0.034194,0.021448,-0.048468,0.175029,0.191657,0.052323,-0.137269,-0.171826,-0.016216,-0.156045,0.220621,-0.087947,-0.346633,0.007721,-0.096401,0.008254,-0.008979,0.066383,-0.200283,0.001018,0.241521,0.148723,-0.043297,0.099433,-0.086786,0.047254,0.184341,-0.141563,-0.240955,0.004012,0.170896,0.032568,-0.042261,-0.209729,0.069127,-0.015474,0.148544,0.075081,-0.185484,-0.033698,-0.030806,-0.090171,-0.017377,0.043892,0.023153,-0.159301,0.015458,-0.019427,0.228176,0.064677,-9e-04,0.063686,0.126268,-0.036593,-0.048842,0.023547,-0.138837,0.084308,-0.007263,0.116874,-0.100586,-0.01599,0.082949,0.151101,-0.038207,-0.165447,0.319235,0.028041,0.121303,0.043203,0.202576,0.149318,0.016153,-0.056097,0.116644,0.077219,-0.054171,-0.2034,-0.105244,0.078936,0.084752,-0.133386,0.163262,-0.003377,0.012415,-0.181794,-0.155403,0.061775,0.098832,-0.11364,0.097093,-0.103794,-0.050985,-0.148067,-0.078546,-0.134741,-0.06046,0.033674,-0.119256,0.112987,0.142857,0.037923,-0.27063,-0.048195,0.004896,-0.085094,0.064726,-0.023711,-0.045462,0.06193,-0.003554,-0.035865,0.157284,-0.007817,-0.155442,-0.057312,-0.200317,0.159119,0.034053,0.303533,0.088406,-0.011547,0.056295,-0.033893,-0.09134,0.134792,0.049031,-0.010991,-0.12271,-0.091523,0.087289,0.127896,-0.098217,0.117012,0.141273,0.100314,-0.007441,-0.033345,-0.036004,-0.078168,-0.120969,-0.128798,-0.268003,-0.073461,0.230691,0.221167,0.243566,-0.247853,-0.094393,-0.019885,0.051919,-0.020634,-0.072542,0.170381,-0.046246,0.115157,-0.0892,-0.087922,0.000678,-0.020206,0.157039,0.032582,-0.094552,0.018952,0.131185,-0.253263,-0.087038,0.138174,-0.081113,0.19868,0.211571,-0.16927,-0.165553,0.108619,-0.010296,0.046857,-0.068336,-0.097854,-0.063029,-0.03853,-0.16772,-0.071018,0.134335,0.00055,-0.079468,0.043547,0.161322,0.039205,0.230111,-0.043615,0.087915,-0.040054,-0.04734,-0.139927,0.088486,-0.006732,0.060782,0.137888,-0.203155,-0.013604,-0.161364,0.110542,0.09705,0.066472,0.054142,0.149576,0.028527,0.04284,0.074353,-0.046992,-0.227643,-0.087298,0.020159,0.066289,0.012832,-0.062279,0.102182,-0.046515,-0.073259,0.180556,-0.085405,-0.045818
talk,-0.100688,0.047413,0.303129,-0.163541,-0.159212,-0.094675,-0.041999,-0.024881,-0.008769,-0.055805,0.107678,-0.131178,-0.089688,-0.008103,-0.028702,0.076504,0.079284,-0.034627,-0.113757,-0.050856,-0.254763,0.063358,0.033978,0.104166,0.139047,-0.032696,0.015776,-0.087507,0.0478,0.062006,-0.036007,-0.154138,-0.087014,0.067716,-0.049258,0.069081,-0.066184,-0.11942,-0.133013,0.128363,-0.046113,0.092698,-0.02531,-0.109741,-0.177815,-0.224561,-0.118742,-0.016812,0.011981,0.155063,0.010112,-0.026327,-0.095718,-0.083656,-0.004722,-0.035751,-0.027218,-0.009174,-0.031807,0.275488,0.116362,-0.272526,-0.16808,-0.176334,-0.012971,0.101495,0.221837,-0.081208,0.041188,-0.047183,-0.07515,-0.026759,0.12989,0.133243,0.156677,-0.129964,0.055181,0.257165,-0.154874,0.187994,-0.186146,0.022868,0.005209,-0.112449,-0.052871,-0.186492,0.040924,-0.126712,-0.070343,-0.041852,-0.292798,-0.046599,0.013642,0.015441,0.017038,0.233212,-0.032274,0.059844,0.011291,-0.025511,-0.021761,0.077081,0.06969,-0.02476,0.11912,-0.093538,-0.011435,0.151128,-0.099304,0.1556,-0.16831,-0.087817,-0.050787,-0.116901,0.172843,0.065867,-0.206124,-0.041172,-0.138799,0.111807,-0.133498,-0.024704,-0.259606,-0.130062,0.068903,0.148662,0.174506,-0.098772,0.20073,0.004507,0.119204,0.077497,-0.182069,0.099588,-0.212833,0.055665,-0.016854,0.135237,-0.021461,-0.112034,-0.142674,0.128773,-0.036436,0.056002,0.245631,0.108609,0.146054,0.085305,0.195535,0.079691,0.020122,-0.172792,-0.001759,0.04387,0.130039,-0.186861,0.015697,-0.005199,0.044069,-0.150202,0.130515,-0.028703,0.093367,-0.124889,-0.063852,-0.002315,0.028089,0.074611,0.096432,0.044339,-0.053694,-0.231376,0.063735,-0.017746,0.040204,0.044617,-0.043753,0.088786,0.087654,0.001085,-0.08165,-0.048901,-0.018634,-0.029791,0.067488,-0.119419,-0.027163,0.244329,0.016434,-0.080241,-0.0027,0.04209,-0.026293,0.006633,0.105502,0.078032,-0.007871,0.222813,-0.137107,-0.120744,0.024913,-0.080698,-0.068346,0.125962,0.023786,0.064195,-0.131975,-0.018972,-0.099761,-0.010859,-0.084211,0.038219,0.098886,0.061809,0.071483,0.022592,0.021703,0.073041,0.056551,-0.016285,-0.013989,0.048955,0.261138,0.227751,0.170886,0.064726,0.170428,-0.142123,0.068123,-0.02222,-0.039124,0.107679,-0.085784,0.06561,-0.000179,-0.073988,0.0228,-0.027573,0.10184,0.056772,-0.091936,0.107982,0.147938,0.079672,0.090942,0.213109,-0.249879,-0.010081,0.173273,-0.100578,0.024736,0.017381,-0.025275,-0.186798,0.019396,0.135754,-0.021684,-0.058628,-0.117034,0.242992,0.052658,-0.155509,0.069935,0.182069,0.093194,0.04756,0.018139,0.071201,0.100994,0.027844,-0.066044,-0.087725,0.008936,-0.12242,-0.037503,0.139278,-0.040045,-0.169469,-0.182059,0.145071,-0.032995,0.025659,-0.057392,0.083027,-0.155452,-0.08417,0.029504,0.010705,-0.085313,-0.051705,0.100734,-0.01956,-0.034437,0.070898,-0.115772,-0.120719,-0.138957,0.027538,0.072537,-0.064031
march,-0.095314,-0.052402,0.207265,0.105104,0.073614,-0.061965,-0.133977,0.131367,-0.072835,-0.097276,0.033788,0.075695,-0.080319,-0.041016,-0.015174,0.133599,-0.064867,-0.097353,-0.130339,0.027703,-0.214529,-0.113154,-0.050514,0.192138,0.01597,-0.025695,-0.052195,-0.047074,0.193857,-0.050833,-0.012565,-0.028956,-0.045305,-0.111293,-0.05368,0.109754,0.064557,0.041249,-0.036874,-0.053169,-0.024539,0.133211,-0.073737,0.048161,0.020689,-0.156109,-0.219545,0.008742,-0.125492,-0.039848,0.09802,0.119559,0.084488,-0.206926,-0.071775,-0.014219,-0.063213,-0.01883,-0.031898,-0.100666,-0.111724,-0.109227,-0.058373,-0.008737,-0.010965,-0.017803,0.024503,0.035625,0.053898,-0.061952,-0.149668,-0.148936,-0.019131,-0.053722,0.029981,0.008144,-0.236863,-0.02577,-0.243922,0.200291,-0.07044,-0.055926,-0.008248,0.096698,0.075428,-0.138293,-0.037091,-0.013489,0.179548,0.034718,0.024772,-0.057345,0.102986,0.127738,-0.125059,-0.132327,-0.100231,0.198019,-0.027909,0.108251,-0.131986,0.013919,0.204644,-0.014196,0.090612,-0.102269,-0.016678,-0.069494,-0.041921,-0.025577,0.039732,0.13435,0.017665,0.202262,-0.212798,0.050142,0.081753,-0.011536,-0.047491,0.053327,0.063462,0.103195,0.032242,0.028849,-0.024402,-0.120415,0.177011,-0.00215,0.049062,-0.011532,-0.079658,-0.025466,-0.009383,0.101804,0.069188,0.010339,-0.176202,-0.09721,-0.212257,0.043123,-0.11404,0.10579,-0.12812,-0.003881,0.176566,0.080535,-0.083718,-0.023333,-0.019196,-0.017516,-0.221304,-0.247778,0.011111,0.134759,-0.18408,-0.178266,-0.150326,-0.02738,-0.007976,-0.103005,0.196112,-0.213475,0.091529,-0.065623,-0.124931,0.140787,0.193327,0.002427,0.026376,-0.120173,-0.105666,0.014732,-0.124945,-0.092138,0.193619,-0.076799,-0.072581,0.056482,0.109575,-0.086496,0.193561,-0.066215,-0.145896,0.031693,-0.27484,0.082272,0.059119,0.168974,-0.003599,0.167765,0.121766,0.086998,-0.0088,-0.253628,-0.023237,0.104438,-0.152267,-0.017061,0.155273,-0.020747,-0.009055,0.010147,0.038931,-0.101462,-0.001208,-0.045737,-0.205429,0.108311,-0.182031,-0.013457,0.102966,-0.067765,0.026215,0.060455,-0.038495,-0.143666,-0.262825,-0.053451,-0.055851,0.043579,0.034925,0.298232,0.137454,0.201839,0.044461,0.050849,-0.101023,0.081356,0.117182,0.10973,-0.013762,-0.041695,0.010163,0.150734,0.006953,-0.061499,-0.029137,0.002061,0.154406,0.121059,-0.022235,0.080206,-0.016137,0.09858,-0.13951,-0.012141,0.175901,0.030479,-0.04448,0.027961,-0.091013,0.100768,-0.12196,0.10908,0.114039,-0.103948,-0.006263,-0.00804,-0.122027,0.054715,0.122379,0.343822,-0.050279,0.268633,-0.119866,-0.127734,0.05406,-0.068112,-0.163642,0.072352,-0.080832,-0.107491,-0.003962,0.121637,0.059869,0.099515,-0.017314,0.265562,0.075629,0.205771,-0.126524,-0.047702,0.197639,-0.090901,-0.144306,0.050971,0.176671,0.146274,-0.000238,-0.04795,0.084419,0.069825,-0.19622,0.120839,-0.10316,0.023955,0.164454,0.189168,-0.113035,0.310257
mind,-0.020436,0.047661,0.181837,-0.007,0.023716,-0.003209,-0.124376,-0.140227,-0.005457,-0.142045,-0.008322,-0.135624,-0.147522,0.043329,-0.132619,0.13095,0.057021,0.010079,-0.042711,0.078031,-0.170342,-0.106057,0.022863,0.096397,0.052272,0.161231,-0.032691,0.049161,-0.020428,-0.125668,-0.071414,-0.139727,0.057918,-0.069658,-0.105966,0.149116,-0.062638,-0.038829,0.004772,0.025849,-0.145085,-0.058341,-0.068209,0.004807,0.088759,-0.150754,-0.066267,0.056576,0.012574,0.099517,0.162952,0.074854,0.178642,-0.111908,0.087383,-0.195985,0.064957,-0.125721,0.006217,0.026234,-0.11605,-0.083203,0.087511,-0.147707,-0.059833,0.139661,0.18145,0.004401,-0.063312,-0.009062,-0.166224,0.071807,-0.064812,-0.104588,-0.004125,0.037814,0.112598,0.125685,0.088245,0.185473,0.012655,0.168303,0.051901,-0.073177,-0.089217,-0.189223,0.162569,-0.187226,0.097974,-0.113505,-0.17762,-0.042556,-0.013493,0.106328,-0.069441,0.180962,-0.002773,0.121195,0.09576,-0.088756,-0.0879,0.028193,-0.102508,-0.059503,0.189455,0.036012,-0.019668,-0.130257,0.174823,-0.011352,-0.107583,-0.159624,0.002526,-0.095831,0.069857,0.068757,-0.132443,-0.056602,-0.228796,0.077102,-0.142384,-0.091777,-0.165583,-0.142223,0.012436,0.002237,0.171952,0.100333,0.06433,0.106571,-0.076615,0.033026,-0.055597,0.014835,-0.220049,0.015963,0.031012,-0.093465,-0.082398,0.005315,-0.0213,-0.138107,0.09935,-0.021536,0.145393,0.152901,-0.081417,0.023654,0.227609,0.065602,0.170296,-0.182424,0.076155,0.021525,0.12036,-0.215115,-0.044197,-0.001189,0.042828,-0.203856,0.086142,0.11641,0.134377,-0.215358,0.072804,0.037072,0.099272,-0.047056,0.003643,-0.019973,-0.081945,-0.032392,0.164652,-0.022372,-0.025377,0.024835,-0.059958,0.238132,0.076561,0.067165,-0.195586,0.077698,0.002787,0.115873,0.112232,-0.043512,-0.090755,-0.08085,0.028078,0.116848,0.010474,-0.029252,-0.106494,-0.131481,-0.21281,0.01167,-0.072314,0.046894,-0.288307,0.000172,-0.01259,-0.076793,-0.068131,-0.168575,-0.033425,0.093021,-0.010162,-0.133738,-0.042189,0.095656,0.01979,-0.026987,0.230801,0.130991,0.009072,0.114456,0.084189,-0.025189,-0.164835,-0.083708,-0.115779,-0.063954,0.166344,0.165239,-0.003449,-0.116689,-0.011923,-0.2642,0.028947,0.079974,-0.0489,0.085338,-0.074702,-0.085169,0.106498,-0.119118,0.012582,-0.036387,-0.081683,-0.023508,-0.1075,0.181548,0.037811,0.052804,0.071405,0.033238,-0.300819,0.048811,0.078577,0.001286,-0.001364,0.049748,0.008995,0.068525,0.052217,-0.075791,-0.09273,0.081576,0.038404,-0.056823,-0.024676,-0.120583,0.004333,0.07856,0.190185,0.086557,0.065876,-0.08982,-0.116076,0.143585,-0.077576,-0.126989,-0.071463,-0.030435,-0.035973,0.096728,-0.131612,0.002774,-0.023769,-0.093161,-0.051534,0.051698,0.03366,0.152418,-0.168723,-0.023095,-0.142465,-0.156788,-0.091157,-0.094643,-0.059446,0.246898,-0.095925,0.0578,-0.024806,0.062674,-0.105691,0.099404,0.034556,-0.115294
white,0.020454,0.129469,0.17536,-0.263087,-0.010926,-0.160993,0.239612,-0.045831,-0.171005,0.038509,0.023163,-0.216473,-0.025584,0.04706,-0.068054,-0.130254,-0.035344,-0.105202,-0.032363,-0.057227,-0.298287,-0.047761,-0.155772,0.131597,0.094902,-0.109136,-0.040299,-0.076474,-0.139369,-0.227671,-0.005318,-0.276508,-0.000449,0.048768,-0.014523,0.230729,-0.310369,0.045938,0.022319,-0.232176,-0.153148,0.101649,-0.10258,-0.107563,-0.19307,-0.236034,0.120119,0.172159,-0.047017,-0.013538,0.010785,-0.256599,-0.028397,0.01797,-0.013828,-0.153833,0.204737,-0.021313,-0.227912,0.229397,0.014714,-0.235066,-0.034367,-0.065988,0.128209,-0.039394,0.061747,-0.078671,-0.063262,-0.037077,0.023905,-0.002543,0.087527,0.031433,0.080493,-0.081979,-0.088617,-0.202601,0.05142,0.013309,0.010368,0.107904,0.090133,-0.094232,-0.293195,0.017489,0.077796,-0.156316,0.351061,-0.035196,-0.019385,-0.044295,-0.232448,0.189702,-0.056541,-0.12206,0.078013,0.071291,0.224755,-0.2906,-0.14781,-0.022479,-0.11354,0.097206,-0.082997,0.053067,0.193897,0.0983,0.019079,-0.061677,8.6e-05,-0.028271,0.055756,-0.032704,-0.265944,-0.121849,-0.046792,-0.129101,0.140979,0.236487,0.190943,-0.118138,-0.087787,0.012204,-0.069243,-0.16156,0.252323,0.038338,-0.008349,-0.046892,-0.056153,0.090226,-0.184247,-0.05868,-0.065338,-0.114216,-0.194826,0.0811,-0.017656,-0.311518,-0.039144,0.077512,0.025943,-0.13549,0.108637,-0.038082,-0.051962,0.23971,0.161342,0.147069,-0.197393,-0.169332,0.054017,-0.024793,0.106452,-0.03961,0.054899,-0.18292,0.036371,-0.060491,-0.046964,0.123957,0.140338,-0.200457,-0.012337,0.13556,0.048159,0.042703,0.160535,0.216077,0.039352,0.086854,-0.153792,0.205055,0.033084,0.289464,0.093665,0.033215,0.022729,-0.057341,0.206272,0.069367,0.104105,-0.003334,0.104989,-0.039985,0.138788,0.281821,-0.200545,0.086336,-0.01554,-0.08742,-0.06836,0.200047,-0.016783,0.116564,0.09375,0.121061,-0.135638,0.084219,-0.251454,0.03253,-0.024509,-0.011639,0.023664,-0.056676,-0.041255,-0.183345,0.165781,0.066934,-0.008214,0.013445,0.027412,-0.138139,-0.101626,-0.069548,0.083062,-0.088188,0.029343,0.089002,0.118133,0.112827,0.050646,-0.007009,0.342723,-0.059325,0.177617,0.082399,-0.156875,0.039161,-0.042764,-0.115699,-0.02439,0.130958,0.076517,-0.120413,0.065288,-0.178818,0.136374,0.364668,-0.24347,0.099909,0.102206,-0.023065,-0.021828,-0.146258,-0.005483,-0.006419,-0.073714,-0.081315,0.1062,-0.03706,-0.099818,-0.058911,-0.012973,0.095539,0.051718,-0.040895,-0.096525,0.059528,0.045333,0.041162,0.02491,0.009283,-0.048453,0.097936,0.210512,-0.02275,0.098388,-0.083761,-0.139098,-0.026602,0.007211,-0.056725,-0.096237,0.194951,-0.149864,0.180435,-0.129106,0.22356,-0.238766,-0.106175,0.132614,-0.100128,-0.086529,-0.006317,0.070269,0.019007,-0.181289,0.066919,0.027484,0.108989,-0.20371,-0.054022,0.03678,0.033864,-0.250621,0.132513,-0.129156,0.020135
idea,0.012535,0.038432,0.111827,-0.080202,-0.159318,-0.154811,-0.030222,-0.05255,-0.111273,0.137141,-0.079055,-0.169612,-0.006252,0.004546,0.055477,-0.039618,0.14521,-0.061934,-0.085557,0.10609,-0.104413,0.106577,0.032081,-0.029508,0.182257,0.03003,0.045436,0.002397,-0.004195,-0.114139,-0.167672,0.078034,-0.07883,-0.040931,-0.114653,0.117209,0.004191,-0.167633,0.167033,-0.13843,-0.151094,0.191741,-0.055838,-0.002587,-0.104967,-0.112147,-0.108003,-0.106416,-0.090795,0.049502,0.069553,-0.028037,0.036081,-0.131882,0.083426,-0.175212,0.04053,-0.139482,0.077178,0.201529,-0.033096,-0.069298,0.043845,-0.11293,0.001456,0.000128,0.135966,-0.01022,0.125044,0.010536,-0.142504,0.062771,0.052339,0.085859,0.124409,0.027341,0.066637,-0.109768,0.132812,-0.067475,0.078222,0.102901,-0.077106,-0.091459,-0.055479,-0.117041,-0.072429,-0.028466,-0.000489,0.013141,-0.195004,-0.068808,-0.084233,-0.007758,-0.009094,0.097241,-0.176772,0.085603,0.05796,-0.112945,0.111959,0.163905,-0.138949,-0.035269,0.086653,-0.02491,0.035419,-0.095198,0.04937,0.038745,-0.080062,-0.040359,-0.116025,-0.159644,0.069728,0.116575,-0.027507,-0.071084,-0.101133,0.096539,0.040694,0.018362,-0.289171,-0.018368,0.019289,-0.02953,0.21761,-0.024154,-0.005631,0.141202,0.126846,0.088114,-0.079524,-0.091467,-0.073457,-0.019284,0.094915,0.111152,0.164726,0.115818,-0.003024,0.021769,0.110665,0.11561,0.080806,-0.086447,0.131169,0.137385,0.06332,0.082171,0.15328,-0.13527,0.089727,0.033959,0.10457,-0.029824,0.041586,-0.135877,-0.211719,-0.028694,0.036075,0.032159,-0.003173,-0.091907,0.019424,0.039526,0.168036,0.028882,0.020784,-0.03037,0.065711,-0.115704,0.069506,-0.1111,0.04951,-0.031071,0.022698,0.073908,0.134931,0.002445,0.045645,0.007341,-0.086528,0.157199,0.079326,0.01508,0.087418,0.02489,0.060972,-0.039886,0.071051,0.19189,-0.147616,-0.011652,-0.109272,0.168844,0.034302,0.032035,-0.033548,-0.108115,0.024419,0.189654,-0.141042,-0.086153,-0.057559,0.059975,0.081395,-0.073677,0.045605,0.02912,-0.185794,0.118134,0.041033,0.154032,0.043931,0.095953,-0.034804,0.004188,-0.016844,-0.092638,-0.112501,-0.037901,0.040593,0.071948,0.141961,-0.130412,0.010385,-0.085562,-0.043039,0.086569,-0.146956,0.124721,-0.086406,0.008324,-0.059916,-0.038556,-0.026802,-0.191854,0.07375,0.087654,0.051488,0.157628,0.038655,0.136722,0.016496,0.037052,-0.135517,0.14614,0.190155,-0.112612,-0.079321,0.117671,-0.130859,-0.071496,0.067636,-0.091315,0.108382,-0.022367,0.01025,0.054205,-0.005631,-0.123032,-0.020182,0.0865,0.212021,-0.111561,0.098899,-0.112097,0.021998,0.018677,0.044146,0.011355,0.121752,-0.182479,0.010845,-0.016941,0.012915,-0.017465,0.071918,0.097967,-0.127921,0.174055,-0.036572,-0.009737,0.009905,0.03778,-0.102514,-0.060423,-0.020297,-0.086236,-0.033914,0.127544,0.052652,0.056224,0.106858,-0.13414,-0.171395,0.081066,-0.049852,-0.101674
air,-0.286338,0.08288,-0.023748,-0.114862,0.132216,-0.025189,0.037377,-0.153392,-0.229723,0.178307,-0.284228,-0.135243,-0.18275,0.012481,0.106195,0.0928,0.148811,-0.361665,0.043159,-0.060314,-0.079604,-0.035063,0.152259,0.001629,-0.0265,-0.036758,0.034924,-0.17757,-0.087095,-0.105929,-0.102415,-0.005237,-0.169794,0.053986,-0.040432,0.195313,-0.274332,-0.165767,-0.009037,-0.194376,-0.085978,0.16648,-0.119561,-0.448187,0.06408,-0.041484,-0.024965,-0.045572,0.048053,-0.075133,-0.031386,0.085075,-0.052742,-0.0957,-0.057308,0.087585,-0.007756,-0.155178,0.104271,0.166616,0.079872,-0.172089,-0.128188,0.082099,0.038505,0.052357,0.072703,0.196005,0.192974,-0.064116,0.123118,-0.050046,-0.125961,-0.090637,0.218139,0.392688,-0.233945,-0.045192,0.108815,-0.051873,-0.099247,0.185795,-0.171634,-0.14111,0.006558,-0.304819,-0.012916,0.155723,0.102304,-0.115448,-0.045996,-0.322911,-0.026797,0.205308,0.029631,-0.420772,-0.049688,0.222455,-0.016215,0.132863,-0.213612,0.033735,0.200794,-0.068883,0.164063,0.041153,0.106156,0.075558,-0.043487,0.045827,-0.03603,-0.004805,0.122238,-0.138747,-0.015897,0.061617,0.01083,0.066545,-0.319237,-0.136057,0.152474,-0.139655,-0.178052,0.025415,-0.019315,0.092039,-0.138132,-0.001412,0.09414,0.041906,-0.027881,0.057549,-0.148728,-0.047173,0.126575,0.207943,-0.162466,0.09712,0.00408,-0.198389,-0.032224,0.187628,0.302131,0.072913,0.099679,-0.055972,0.105458,0.014342,0.000975,0.114433,0.059481,-0.255472,0.113433,0.204483,0.079142,-0.10186,-0.002503,0.117113,-0.032337,-0.155397,0.099822,-0.154733,0.230254,-0.197024,0.220711,-0.037493,0.004048,-0.13419,0.230846,-0.081861,-0.053285,-0.009018,0.079313,-0.145795,0.147423,-0.081165,0.05246,-0.120022,0.364811,-0.019929,0.166188,-0.05428,-0.093741,0.027617,-0.010646,-0.011255,0.184918,0.06044,0.135506,0.154982,-0.099429,-0.00022,0.129528,0.032092,-0.044587,-0.174307,-0.340916,0.240035,0.054768,0.07849,0.205743,0.118776,-0.032375,-0.212268,-0.000293,0.045828,-0.0602,-0.192685,-0.052335,0.04698,-0.02209,-0.03562,0.055829,-0.090381,0.362105,-0.043592,0.01045,-0.026342,-0.229136,-0.257866,0.183918,0.016775,0.09401,0.222243,-0.056299,0.053844,0.171622,-0.064025,-0.098544,0.060563,-0.173367,0.08774,-0.131904,0.267055,0.069844,0.067759,0.169697,0.101649,-0.070963,0.17046,-0.044844,0.343864,-0.07707,-0.018445,-0.158158,-0.130864,-0.207678,0.26102,0.085605,-0.074099,0.004766,0.021084,-0.181252,0.070854,-0.101606,0.165629,0.000487,0.03911,-0.068854,-0.020367,-0.202965,-0.156389,-0.252766,0.145665,0.063508,0.058085,0.069935,0.004079,-0.038596,0.020561,-0.195357,-0.268358,-0.294494,-0.078472,-0.024569,-0.022828,0.021348,0.005968,0.088911,0.041409,0.176246,-0.121335,0.088655,0.018793,-0.274696,-0.358944,-0.073738,-0.21298,0.199095,0.071844,0.135642,-0.088238,-0.083919,0.000232,-0.136597,-0.140559,0.056739,0.342688,0.043343,-0.181969
mail,0.18559,0.032685,0.137825,-0.120726,-0.137477,0.092182,-0.008587,0.008085,-0.249587,0.029741,-0.206152,-0.04494,-0.128997,0.004013,-0.121689,-0.292866,-0.175187,-0.097085,0.241892,0.038161,0.088285,-0.189125,0.175735,-0.164503,-0.098769,0.026648,-0.09932,-0.01916,-0.126573,0.063602,-0.013908,-0.106102,-0.127635,0.092624,-0.160681,0.207268,0.106386,-0.258908,-0.017507,-0.020796,-0.043458,0.009531,-0.041025,-0.067011,0.170389,-0.060427,-0.311423,-0.148018,0.007662,0.103611,-0.043336,-0.235401,-0.043627,-0.158715,0.102424,0.163441,0.076891,-0.238649,0.005073,-0.143581,-0.154396,0.153524,-0.056758,-0.102865,-0.226241,0.132532,-0.227231,0.294791,-0.065146,-0.057202,-0.106315,0.106762,0.188025,0.057623,-0.248303,0.066884,0.319882,0.01274,0.167309,0.207987,-0.081649,0.006579,0.333782,-0.282204,-0.009024,-0.016252,0.00159,-0.110248,0.222211,-0.07228,-0.159732,-0.031868,0.09251,0.240787,-0.078371,-0.052323,0.009708,0.239071,-0.069714,-0.273656,-0.107423,0.131687,0.027966,0.128616,-0.042811,0.076113,-0.1473,0.217277,-0.189603,-0.008837,-0.217911,0.114707,-0.300199,0.212488,-0.053448,0.012414,-0.143795,0.482336,-0.050016,-0.118009,-0.299446,0.158261,-0.063595,0.317445,0.425685,-0.098248,0.11307,0.094462,0.156278,-0.137285,0.143526,-0.064444,-0.06153,0.1507,-0.01815,-0.078117,-0.197617,0.074435,0.145208,-0.066015,-0.027493,0.080627,-0.376102,0.116335,0.111639,0.301088,0.027048,-0.191683,0.053631,-0.099321,-0.219004,-0.263644,0.064862,-0.10058,0.251194,-0.153146,0.108504,0.023935,0.001509,-0.076026,0.054888,0.059106,0.146325,-0.198928,-0.034576,-0.035237,-0.071239,-0.41043,-0.031397,0.05195,-0.048591,-0.203242,-0.098838,-0.108635,-0.151729,-0.176713,-0.156191,-0.0373,0.10086,-0.270313,0.005193,-0.119863,-0.116265,-0.053277,0.010427,-0.026606,0.279979,0.026599,0.275491,-0.303382,-0.172146,0.131981,-0.256472,0.241973,0.277219,-0.061996,-0.088532,0.173655,0.196067,-0.029411,0.275078,0.169417,-0.153293,-0.24218,-0.121858,0.034734,0.145409,-0.083886,0.03397,0.064732,0.101901,0.038299,-0.077818,0.125189,0.198673,0.135466,-0.069097,0.073189,0.190991,-0.050061,-0.039888,0.079862,0.276085,-0.076907,0.296488,0.119021,0.253692,0.049783,-0.235611,0.240218,-0.039804,-0.104493,-0.315901,-0.061728,0.035561,0.186415,0.140457,-0.020161,0.205443,-0.057893,0.002233,0.221703,-0.078292,0.148999,0.037186,-0.10176,-0.046028,-0.091099,0.143483,0.216492,-0.168718,0.03627,-0.226603,-0.060477,-0.213166,-0.369708,0.065903,-0.100397,-0.012103,0.150714,-0.068389,-0.019907,-0.062508,-0.167438,0.149939,0.014785,-0.000497,0.138769,-0.091974,-0.129556,-0.033216,0.065718,-0.008617,-0.141726,-0.132392,0.122254,0.130674,0.186548,-0.020149,-0.099115,0.037082,-0.107936,0.13748,0.028924,0.11112,-0.107929,0.063165,-0.064571,0.152063,-0.112184,0.176614,0.04768,-0.26694,0.147162,0.009311,-0.112574,0.121202,0.219461,0.088641,-0.064838
front,0.014511,0.04274,0.008356,-0.018778,0.039942,-0.1099,0.186225,-0.062258,-0.133927,-0.137212,0.034642,-0.032786,-0.128352,0.053819,-0.054703,0.193474,-0.017644,-0.109097,-0.037274,0.033201,-0.236821,0.092964,0.006695,0.177534,0.186872,-0.010647,-0.02976,-0.096135,0.08718,-0.103979,-0.09916,-0.126385,-0.055026,-0.104211,-0.035924,0.168513,-0.339172,0.020683,-0.222931,-0.063127,-0.004488,0.08951,-0.084174,-0.092321,-0.07154,-0.05163,0.053267,0.149452,0.145303,-0.250072,0.119141,-0.17282,0.134824,0.169242,0.129868,-0.008635,0.001511,0.069417,-0.139103,-0.064323,0.082605,-0.137265,0.027543,-0.111486,0.120139,-0.144883,0.148229,-0.140023,0.009478,-0.088418,0.044217,-0.258298,-0.017631,-0.009564,0.175969,0.060865,0.18003,-0.050548,-0.002941,-0.138076,-0.171338,-0.083035,0.004415,-0.077739,-0.175415,-0.062017,0.11448,-0.048455,0.201364,-0.141114,-0.002455,0.027063,-0.079688,0.047306,-0.104605,0.022813,-0.147218,-0.015739,-0.127204,0.191203,0.029305,-0.043269,-0.043969,0.106485,0.042781,-0.08947,0.034405,0.182299,-0.153902,-0.045745,-0.000619,0.012721,-0.076195,0.021317,0.100426,-0.081718,0.043442,-0.167714,-0.09314,0.104082,-0.127625,0.012661,0.037486,-0.312997,0.21633,-0.145514,0.044719,0.007911,0.19457,-0.058691,0.0014,0.240769,-0.026251,-0.053106,-0.093184,0.093837,-0.098219,0.140773,-0.129801,-0.030104,-0.10427,0.096967,0.019726,0.073735,0.009861,0.084661,0.077316,0.093238,0.05397,-0.095781,-0.05138,-0.186766,-0.059163,-0.049347,0.129178,-0.261315,-0.00888,-0.09857,0.223301,0.059842,0.240585,-0.012422,0.03137,-0.251,-0.149689,-0.004982,0.193455,-0.135942,0.201103,-0.05979,0.001207,-0.140644,-0.114742,0.044757,0.001013,-0.016111,-0.034693,-0.045881,0.060246,-0.123287,0.029969,0.009513,-0.034758,-0.062888,-0.042668,-0.107981,-0.037696,0.154019,0.110404,-0.023357,0.077734,0.019405,-0.041825,-0.129423,0.087811,0.0925,-0.079884,0.060747,-0.04128,-0.052072,0.046886,0.112432,-0.17433,-0.113315,-0.107024,-0.091895,0.112812,0.046362,0.03919,0.133486,-0.024632,-0.004714,0.130128,0.076659,-0.038498,0.131333,-0.088404,-0.069631,-0.088924,-0.062588,-0.106259,0.170863,0.186708,0.070316,0.226577,-0.03507,0.158607,-0.010293,0.029434,-0.090612,-0.104989,0.220827,-0.078326,-0.1111,-0.01966,-0.115368,-0.012536,-0.154097,0.097535,0.111288,0.001896,0.027264,0.020648,-0.013384,0.1995,-0.180476,0.031627,0.119326,0.029299,0.124739,-0.142121,0.156768,-0.092213,-0.049398,-0.034176,-0.22854,-0.013862,0.047812,-0.183842,-0.003451,-0.01515,-0.106623,0.030809,-0.079511,0.15329,0.075023,0.103957,0.032733,0.120286,0.128819,-0.216731,-0.039624,0.16265,0.013735,0.057954,0.021451,-0.145466,0.089516,-0.219827,0.077715,-0.101707,0.124013,0.180144,0.088329,-0.113238,-0.100429,-0.137113,0.016027,0.033442,-0.15472,0.023728,0.383445,-0.014085,0.005973,0.044788,0.129354,-0.072885,0.073566,-0.01135,-0.039675
fire,-0.102167,-0.189082,0.221095,0.038361,0.154295,0.011408,0.176525,-0.061942,-0.06981,-0.005486,-0.054429,0.018787,0.216041,0.010429,-0.001265,-0.083375,-0.075043,-0.061864,-0.031105,0.06029,-0.131525,0.035739,0.034905,0.238727,0.116736,0.143457,0.0833,-0.016107,-0.086413,0.142166,-0.037059,0.022073,-0.016857,-0.008355,0.039274,0.017401,-0.287961,-0.070595,0.11111,-0.032032,-0.111342,0.107432,-0.006858,-0.101989,0.120216,-0.355934,-0.211848,0.069846,0.134487,0.015931,-0.027103,0.135025,0.245124,-0.073479,-0.149756,0.033044,0.038075,-0.081433,-0.296943,0.257667,-0.08741,-0.117946,0.017909,-0.200212,0.158893,-0.011911,-0.077488,0.153049,0.153589,-0.095827,-0.007869,-0.295536,0.118824,-0.154648,0.220632,0.189516,-0.111736,-0.009606,-0.012521,-0.10488,-0.169113,0.104426,0.037935,-0.01116,-0.277932,0.02454,-0.184876,-0.108598,-0.05719,0.094556,-0.098714,-0.122672,-0.133926,0.159714,-0.073728,-0.150148,0.13749,-0.029733,0.147476,0.269796,-0.234054,0.010035,-0.066124,0.066988,0.008757,-0.021836,-0.030513,-0.000358,-0.008863,0.04117,0.122232,-0.170238,0.056574,-0.152748,0.190346,0.067508,-0.167025,0.094388,0.066468,-0.189138,0.293735,-0.163025,-0.291158,-0.188697,-0.054183,0.05291,0.070067,0.063149,0.30638,0.102208,0.057461,0.140223,-0.157895,0.173206,-0.087411,-0.11477,-0.030237,0.125373,0.00291,0.358906,-0.046529,0.243916,0.274241,0.046934,0.289189,0.116139,0.115864,0.019317,-0.009917,0.153827,-0.146922,-0.067085,-0.183236,0.051861,0.199617,0.012572,-0.07479,-0.139339,-0.035788,0.012393,0.017288,0.068315,-0.08643,-0.008438,-0.204167,0.066925,0.086696,-0.129624,0.017827,-0.184086,0.089775,-0.169868,-0.24222,0.032418,0.12296,-0.151363,-0.002944,0.003558,0.13191,0.025642,0.093455,-0.164328,-0.163377,0.298501,-0.042997,0.000951,0.067594,-0.105291,0.087496,-0.045023,-0.074719,-0.146744,-0.181247,-0.331068,0.032862,0.159005,-0.113727,-0.033219,-0.187453,0.02389,0.060053,0.168061,-0.152571,0.061132,-0.239382,0.135333,-0.023329,-0.188808,-0.012788,0.024882,-0.00435,0.243265,0.176269,-0.125586,0.050412,-0.073908,-0.149347,-0.002346,-0.028563,-0.148099,-0.0595,0.108847,0.244111,0.001045,0.278603,0.034209,-0.032209,-0.138012,-0.13464,-0.197778,-0.259749,0.189813,0.080245,0.045783,-0.039856,0.085433,0.00787,-0.101647,0.067284,0.130855,0.036131,0.368213,0.120698,-0.105197,-0.179746,-0.048218,0.01755,-0.094423,-0.033568,-0.026784,0.079377,0.100373,0.013893,0.11307,0.033784,0.027465,0.051307,0.047118,0.041427,0.091806,0.117685,0.002664,0.084367,0.18624,0.049916,0.048607,0.137174,0.220046,-0.146535,-0.156586,-0.153204,0.009557,-0.033802,-0.094786,0.197926,0.142279,-0.016251,-0.047232,0.055544,-0.000971,0.122934,-0.059078,0.151854,-0.027025,0.002631,0.020472,-0.03304,0.098455,-0.25673,-0.120017,-0.04629,0.208548,0.113263,0.060091,-0.114287,0.080481,0.028192,0.146928,-0.017404,-0.013261
green,-0.055196,-0.057572,0.203982,-0.09484,-0.088282,-0.155545,0.049933,0.014689,-0.22653,0.027015,0.024948,-0.271924,0.011209,0.124398,-0.069471,-0.198513,0.085155,0.062738,-0.074749,0.02012,-0.150482,0.054573,-0.091647,0.09029,0.157448,-0.049726,0.089025,-0.027655,-0.057832,-0.255195,0.217101,0.134199,0.012751,0.013433,0.018483,0.163174,-0.280316,-0.035864,-0.017595,-0.184947,-0.049741,-0.102696,-0.009161,-0.050476,-0.06566,-0.071156,0.277634,0.144993,0.240318,0.2204,-0.098226,-0.049724,-0.034648,0.259144,-0.199444,-0.163118,0.124549,-0.349933,-0.121142,0.260905,0.072557,-0.166962,0.043797,0.02479,0.167717,-0.099402,-0.028465,0.18415,0.068853,-0.080186,0.097691,0.032119,0.056325,0.024989,0.12715,-0.010711,-0.184702,-0.132809,0.138438,0.10014,0.187799,0.242202,-0.127824,0.048166,-0.32221,-0.002241,0.003483,-0.167311,0.310917,0.148773,0.011361,0.131965,0.14476,0.031112,-0.259909,-0.129775,-0.135473,0.07327,0.182681,-0.079332,0.049753,0.105343,-0.008747,0.083555,0.009375,0.078051,-0.113927,0.099022,0.172741,0.116538,0.17092,0.049584,-0.090463,0.049599,-0.216743,-0.136297,0.167289,-0.026719,-0.006808,-0.017171,0.227311,0.149622,0.098614,-0.163621,0.162936,-0.245245,0.074041,-0.085133,0.007459,-0.03657,-0.130217,0.122311,-0.115693,0.18939,-0.003104,-0.08874,-0.218501,0.011783,0.083538,-0.193577,-0.222069,0.029997,0.156421,-0.093327,0.019249,0.019805,-0.012472,-0.054661,0.18349,0.01913,-0.180629,0.020279,0.095739,0.053302,0.121023,0.030271,-0.127055,-0.135508,0.02215,0.085913,-0.077495,-0.109014,0.199082,-0.294952,0.002382,0.146886,0.054385,-0.015138,0.058677,0.062709,0.037779,0.00872,-0.098231,-0.008217,0.054494,-0.099709,-0.070845,0.186904,0.100416,0.171489,-0.059464,-0.08461,0.016747,0.050039,-0.061432,-0.165873,0.266155,0.037979,-0.296516,0.112313,0.08268,-0.092226,0.010729,0.076293,-0.158955,0.049709,0.014438,0.115506,-0.119839,0.006029,-0.063158,0.183376,0.026328,0.10671,0.01549,-0.11274,-0.001015,-0.168245,0.040523,-0.009255,-0.148601,0.237674,0.100695,0.019832,0.161992,-0.056008,0.034492,0.118278,0.084894,0.051714,-0.023953,-0.034094,-0.015593,0.43746,0.195806,-0.108967,0.009673,0.073935,-0.106617,0.073627,-0.103015,0.016532,-0.071212,-0.051418,0.089146,-0.199183,0.148701,0.02094,0.123836,0.126561,-0.001382,-0.186992,-0.000927,0.03429,0.183574,-0.152168,-0.29886,-0.160424,-0.092225,-0.197139,-0.058053,-0.056662,-0.251619,0.128603,-0.199618,-0.014257,-0.185924,0.046187,0.185099,0.1821,0.243612,-0.32512,0.084507,-0.144953,-0.032313,-0.093753,0.512142,-0.052812,-0.141797,-0.167666,0.013304,0.018589,-0.009001,-0.03537,-0.116545,0.322609,-0.162671,0.014874,-0.097273,0.190801,-0.196542,-0.174478,0.109803,-0.284462,-0.070007,-0.051302,-0.051504,0.020176,-0.079273,-0.126376,0.035833,0.207966,-0.246877,0.044249,-0.025212,0.038293,-0.057119,0.267506,-0.124839,0.153715
